{"learner":{"attributes":{"best_iteration":"99","best_score":"0.37899910893221767"},"feature_names":["age","sex","trestbps","chol","fbs","thalach","exang","oldpeak","slope","ca","cp_1","cp_2","cp_3","restecg_1","restecg_2","thal_1","thal_2","thal_3"],"feature_types":["int","int","int","int","int","int","int","float","int","int","i","i","i","i","i","i","i","i"],"gradient_booster":{"model":{"gbtree_model_param":{"num_parallel_tree":"1","num_trees":"100"},"iteration_indptr":[0,1,2,3,4,5,6,7,8,9,10,11,12,13,14,15,16,17,18,19,20,21,22,23,24,25,26,27,28,29,30,31,32,33,34,35,36,37,38,39,40,41,42,43,44,45,46,47,48,49,50,51,52,53,54,55,56,57,58,59,60,61,62,63,64,65,66,67,68,69,70,71,72,73,74,75,76,77,78,79,80,81,82,83,84,85,86,87,88,89,90,91,92,93,94,95,96,97,98,99,100],"tree_info":[0,0,0,0,0,0,0,0,0,0,0,0,0,0,0,0,0,0,0,0,0,0,0,0,0,0,0,0,0,0,0,0,0,0,0,0,0,0,0,0,0,0,0,0,0,0,0,0,0,0,0,0,0,0,0,0,0,0,0,0,0,0,0,0,0,0,0,0,0,0,0,0,0,0,0,0,0,0,0,0,0,0,0,0,0,0,0,0,0,0,0,0,0,0,0,0,0,0,0,0],"trees":[{"base_weights":[-2.7188083E-8,-2.699054E-1,2.4090724E-1,-6.943117E-2,-4.119992E-1,2.98358E-1,-3.0580032E-1,1.2304417E-3,-3.7567306E-3,2.4229074E-3,-4.2646015E-3,3.8983994E-3,6.31883E-4,3.230543E-3,-4.6387664E-3],"categories":[],"categories_nodes":[],"categories_segments":[],"categories_sizes":[],"default_left":[0,0,0,0,0,0,0,0,0,0,0,0,0,0,0],"id":0,"left_children":[1,3,5,7,9,11,13,-1,-1,-1,-1,-1,-1,-1,-1],"loss_changes":[1.4890076E1,3.0478978E0,3.891698E0,2.757649E0,6.994114E-1,2.3418827E0,1.3427421E0,0E0,0E0,0E0,0E0,0E0,0E0,0E0,0E0],"parents":[2147483647,0,0,1,1,2,2,3,3,4,4,5,5,6,6],"right_children":[2,4,6,8,10,12,14,-1,-1,-1,-1,-1,-1,-1,-1],"split_conditions":[1E0,1E0,2.1E0,1E0,1.31E2,1E0,4.6E1,1.2304417E-3,-3.7567306E-3,2.4229074E-3,-4.2646015E-3,3.8983994E-3,6.31883E-4,3.230543E-3,-4.6387664E-3],"split_indices":[16,9,7,6,3,9,0,0,0,0,0,0,0,0,0],"split_type":[0,0,0,0,0,0,0,0,0,0,0,0,0,0,0],"sum_hessian":[2.27E2,1.07E2,1.2E2,4.5E1,6.2E1,1.09E2,1.1E1,2.8E1,1.7E1,1E0,6.1E1,7.8E1,3.1E1,2E0,9E0],"tree_param":{"num_deleted":"0","num_feature":"18","num_nodes":"15","size_leaf_vector":"1"}},{"base_weights":[-5.4846732E-6,-2.6724678E-1,2.3852399E-1,-6.879178E-2,-4.0790844E-1,2.954156E-1,-3.0285966E-1,1.2185619E-3,-3.7212505E-3,2.4107927E-3,-4.2226436E-3,3.8599088E-3,6.2576175E-4,3.2090058E-3,-4.5970175E-3],"categories":[],"categories_nodes":[],"categories_segments":[],"categories_sizes":[],"default_left":[0,0,0,0,0,0,0,0,0,0,0,0,0,0,0],"id":1,"left_children":[1,3,5,7,9,11,13,-1,-1,-1,-1,-1,-1,-1,-1],"loss_changes":[1.4597589E1,2.986761E0,3.8162937E0,2.70552E0,6.8875885E-1,2.2956905E0,1.3215011E0,0E0,0E0,0E0,0E0,0E0,0E0,0E0,0E0],"parents":[2147483647,0,0,1,1,2,2,3,3,4,4,5,5,6,6],"right_children":[2,4,6,8,10,12,14,-1,-1,-1,-1,-1,-1,-1,-1],"split_conditions":[1E0,1E0,2.1E0,1E0,1.31E2,1E0,4.6E1,1.2185619E-3,-3.7212505E-3,2.4107927E-3,-4.2226436E-3,3.8599088E-3,6.2576175E-4,3.2090058E-3,-4.5970175E-3],"split_indices":[16,9,7,6,3,9,0,0,0,0,0,0,0,0,0],"split_type":[0,0,0,0,0,0,0,0,0,0,0,0,0,0,0],"sum_hessian":[2.27E2,1.07E2,1.2E2,4.5E1,6.2E1,1.09E2,1.1E1,2.8E1,1.7E1,1E0,6.1E1,7.8E1,3.1E1,2E0,9E0],"tree_param":{"num_deleted":"0","num_feature":"18","num_nodes":"15","size_leaf_vector":"1"}},{"base_weights":[-1.0784258E-5,-2.6461428E-1,2.3616433E-1,-6.815826E-2,-4.0385813E-1,2.9250222E-1,-2.9994673E-1,1.2067964E-3,-3.6861056E-3,2.3987389E-3,-4.181098E-3,3.8217981E-3,6.196994E-4,3.1876126E-3,-4.5556445E-3],"categories":[],"categories_nodes":[],"categories_segments":[],"categories_sizes":[],"default_left":[0,0,0,0,0,0,0,0,0,0,0,0,0,0,0],"id":2,"left_children":[1,3,5,7,9,11,13,-1,-1,-1,-1,-1,-1,-1,-1],"loss_changes":[1.4310842E1,2.926845E0,3.7423425E0,2.6543758E0,6.7827415E-1,2.25041E0,1.3005995E0,0E0,0E0,0E0,0E0,0E0,0E0,0E0,0E0],"parents":[2147483647,0,0,1,1,2,2,3,3,4,4,5,5,6,6],"right_children":[2,4,6,8,10,12,14,-1,-1,-1,-1,-1,-1,-1,-1],"split_conditions":[1E0,1E0,2.1E0,1E0,1.31E2,1E0,4.6E1,1.2067964E-3,-3.6861056E-3,2.3987389E-3,-4.181098E-3,3.8217981E-3,6.196994E-4,3.1876126E-3,-4.5556445E-3],"split_indices":[16,9,7,6,3,9,0,0,0,0,0,0,0,0,0],"split_type":[0,0,0,0,0,0,0,0,0,0,0,0,0,0,0],"sum_hessian":[2.27E2,1.07E2,1.2E2,4.5E1,6.2E1,1.09E2,1.1E1,2.8E1,1.7E1,1E0,6.1E1,7.8E1,3.1E1,2E0,9E0],"tree_param":{"num_deleted":"0","num_feature":"18","num_nodes":"15","size_leaf_vector":"1"}},{"base_weights":[-1.5889866E-5,-2.620076E-1,2.3382808E-1,-6.753058E-2,-3.9984784E-1,2.8961757E-1,-2.9706126E-1,-4.1187475E-3,9.5991074E-4,2.386745E-3,-4.1399617E-3,3.784064E-3,6.1369594E-4,3.166362E-3,-4.514644E-3],"categories":[],"categories_nodes":[],"categories_segments":[],"categories_sizes":[],"default_left":[0,0,0,0,0,0,0,0,0,0,0,0,0,0,0],"id":3,"left_children":[1,3,5,7,9,11,13,-1,-1,-1,-1,-1,-1,-1,-1],"loss_changes":[1.4029726E1,2.8681278E0,3.6698184E0,2.629692E0,6.679535E-1,2.2060232E0,1.2800317E0,0E0,0E0,0E0,0E0,0E0,0E0,0E0,0E0],"parents":[2147483647,0,0,1,1,2,2,3,3,4,4,5,5,6,6],"right_children":[2,4,6,8,10,12,14,-1,-1,-1,-1,-1,-1,-1,-1],"split_conditions":[1E0,1E0,2.1E0,5.2E1,1.31E2,1E0,4.6E1,-4.1187475E-3,9.5991074E-4,2.386745E-3,-4.1399617E-3,3.784064E-3,6.1369594E-4,3.166362E-3,-4.514644E-3],"split_indices":[16,9,7,0,3,9,0,0,0,0,0,0,0,0,0],"split_type":[0,0,0,0,0,0,0,0,0,0,0,0,0,0,0],"sum_hessian":[2.27E2,1.07E2,1.2E2,4.5E1,6.2E1,1.09E2,1.1E1,1.4E1,3.1E1,1E0,6.1E1,7.8E1,3.1E1,2E0,9E0],"tree_param":{"num_deleted":"0","num_feature":"18","num_nodes":"15","size_leaf_vector":"1"}},{"base_weights":[-2.3902508E-5,-2.5943303E-1,2.31515E-1,-6.692396E-2,-3.958772E-1,2.8676137E-1,-2.94203E-1,1.1998862E-3,-3.6434291E-3,2.3748113E-3,-4.09923E-3,3.7467023E-3,6.0775084E-4,3.1452526E-3,-4.4740117E-3],"categories":[],"categories_nodes":[],"categories_segments":[],"categories_sizes":[],"default_left":[0,0,0,0,0,0,0,0,0,0,0,0,0,0,0],"id":4,"left_children":[1,3,5,7,9,11,13,-1,-1,-1,-1,-1,-1,-1,-1],"loss_changes":[1.3754496E1,2.8103137E0,3.5986924E0,2.6009192E0,6.5779877E-1,2.1625109E0,1.259792E0,0E0,0E0,0E0,0E0,0E0,0E0,0E0,0E0],"parents":[2147483647,0,0,1,1,2,2,3,3,4,4,5,5,6,6],"right_children":[2,4,6,8,10,12,14,-1,-1,-1,-1,-1,-1,-1,-1],"split_conditions":[1E0,1E0,2.1E0,1E0,1.31E2,1E0,4.6E1,1.1998862E-3,-3.6434291E-3,2.3748113E-3,-4.09923E-3,3.7467023E-3,6.0775084E-4,3.1452526E-3,-4.4740117E-3],"split_indices":[16,9,7,6,3,9,0,0,0,0,0,0,0,0,0],"split_type":[0,0,0,0,0,0,0,0,0,0,0,0,0,0,0],"sum_hessian":[2.27E2,1.07E2,1.2E2,4.5E1,6.2E1,1.09E2,1.1E1,2.8E1,1.7E1,1E0,6.1E1,7.8E1,3.1E1,2E0,9E0],"tree_param":{"num_deleted":"0","num_feature":"18","num_nodes":"15","size_leaf_vector":"1"}},{"base_weights":[-2.8668657E-5,-2.5687727E-1,2.2922488E-1,-6.630785E-2,-3.919458E-1,2.8393337E-1,-2.9137173E-1,-4.0721316E-3,9.556364E-4,2.3629372E-3,-4.058899E-3,3.70971E-3,6.018635E-4,3.1242843E-3,-4.433746E-3],"categories":[],"categories_nodes":[],"categories_segments":[],"categories_sizes":[],"default_left":[0,0,0,0,0,0,0,0,0,0,0,0,0,0,0],"id":5,"left_children":[1,3,5,7,9,11,13,-1,-1,-1,-1,-1,-1,-1,-1],"loss_changes":[1.348431E1,2.7539244E0,3.5289369E0,2.577326E0,6.478033E-1,2.1198568E0,1.2398753E0,0E0,0E0,0E0,0E0,0E0,0E0,0E0,0E0],"parents":[2147483647,0,0,1,1,2,2,3,3,4,4,5,5,6,6],"right_children":[2,4,6,8,10,12,14,-1,-1,-1,-1,-1,-1,-1,-1],"split_conditions":[1E0,1E0,2.1E0,5.2E1,1.31E2,1E0,4.6E1,-4.0721316E-3,9.556364E-4,2.3629372E-3,-4.058899E-3,3.70971E-3,6.018635E-4,3.1242843E-3,-4.433746E-3],"split_indices":[16,9,7,0,3,9,0,0,0,0,0,0,0,0,0],"split_type":[0,0,0,0,0,0,0,0,0,0,0,0,0,0,0],"sum_hessian":[2.27E2,1.07E2,1.2E2,4.5E1,6.2E1,1.09E2,1.1E1,1.4E1,3.1E1,1E0,6.1E1,7.8E1,3.1E1,2E0,9E0],"tree_param":{"num_deleted":"0","num_feature":"18","num_nodes":"15","size_leaf_vector":"1"}},{"base_weights":[-3.6335958E-5,-2.5435308E-1,2.2695743E-1,-6.571253E-2,-3.8805327E-1,2.811332E-1,-2.8856713E-1,1.1929439E-3,-3.6012852E-3,2.3511224E-3,-4.0189647E-3,3.673082E-3,5.960327E-4,3.1034555E-3,-4.393842E-3],"categories":[],"categories_nodes":[],"categories_segments":[],"categories_sizes":[],"default_left":[0,0,0,0,0,0,0,0,0,0,0,0,0,0,0],"id":6,"left_children":[1,3,5,7,9,11,13,-1,-1,-1,-1,-1,-1,-1,-1],"loss_changes":[1.3219782E1,2.698398E0,3.4605293E0,2.5485353E0,6.3796616E-1,2.0780458E0,1.2202761E0,0E0,0E0,0E0,0E0,0E0,0E0,0E0,0E0],"parents":[2147483647,0,0,1,1,2,2,3,3,4,4,5,5,6,6],"right_children":[2,4,6,8,10,12,14,-1,-1,-1,-1,-1,-1,-1,-1],"split_conditions":[1E0,1E0,2.1E0,1E0,1.31E2,1E0,4.6E1,1.1929439E-3,-3.6012852E-3,2.3511224E-3,-4.0189647E-3,3.673082E-3,5.960327E-4,3.1034555E-3,-4.393842E-3],"split_indices":[16,9,7,6,3,9,0,0,0,0,0,0,0,0,0],"split_type":[0,0,0,0,0,0,0,0,0,0,0,0,0,0,0],"sum_hessian":[2.27E2,1.07E2,1.2E2,4.5E1,6.2E1,1.09E2,1.1E1,2.8E1,1.7E1,1E0,6.1E1,7.8E1,3.1E1,2E0,9E0],"tree_param":{"num_deleted":"0","num_feature":"18","num_nodes":"15","size_leaf_vector":"1"}},{"base_weights":[-4.0783303E-5,-2.518473E-1,2.2471246E-1,-6.510775E-2,-3.841992E-1,2.783607E-1,-2.8578898E-1,-4.0260823E-3,9.5130224E-4,2.3393668E-3,-3.979423E-3,3.636816E-3,5.902585E-4,3.0827662E-3,-4.3542976E-3],"categories":[],"categories_nodes":[],"categories_segments":[],"categories_sizes":[],"default_left":[0,0,0,0,0,0,0,0,0,0,0,0,0,0,0],"id":7,"left_children":[1,3,5,7,9,11,13,-1,-1,-1,-1,-1,-1,-1,-1],"loss_changes":[1.29601E1,2.6442418E0,3.3934402E0,2.525998E0,6.2828636E-1,2.037057E0,1.2009902E0,0E0,0E0,0E0,0E0,0E0,0E0,0E0,0E0],"parents":[2147483647,0,0,1,1,2,2,3,3,4,4,5,5,6,6],"right_children":[2,4,6,8,10,12,14,-1,-1,-1,-1,-1,-1,-1,-1],"split_conditions":[1E0,1E0,2.1E0,5.2E1,1.31E2,1E0,4.6E1,-4.0260823E-3,9.5130224E-4,2.3393668E-3,-3.979423E-3,3.636816E-3,5.902585E-4,3.0827662E-3,-4.3542976E-3],"split_indices":[16,9,7,0,3,9,0,0,0,0,0,0,0,0,0],"split_type":[0,0,0,0,0,0,0,0,0,0,0,0,0,0,0],"sum_hessian":[2.27E2,1.07E2,1.2E2,4.5E1,6.2E1,1.09E2,1.1E1,1.4E1,3.1E1,1E0,6.1E1,7.8E1,3.1E1,2E0,9E0],"tree_param":{"num_deleted":"0","num_feature":"18","num_nodes":"15","size_leaf_vector":"1"}},{"base_weights":[-4.8101603E-5,-2.4937247E-1,2.2248974E-1,-6.452351E-2,-3.8038325E-1,2.7561548E-1,-2.8303704E-1,1.1859717E-3,-3.5596662E-3,2.32767E-3,-3.9402707E-3,3.6009082E-3,5.845403E-4,3.0622145E-3,-4.315109E-3],"categories":[],"categories_nodes":[],"categories_segments":[],"categories_sizes":[],"default_left":[0,0,0,0,0,0,0,0,0,0,0,0,0,0,0],"id":8,"left_children":[1,3,5,7,9,11,13,-1,-1,-1,-1,-1,-1,-1,-1],"loss_changes":[1.2705859E1,2.5909147E0,3.3276453E0,2.4972029E0,6.1875725E-1,1.9968767E0,1.1820114E0,0E0,0E0,0E0,0E0,0E0,0E0,0E0,0E0],"parents":[2147483647,0,0,1,1,2,2,3,3,4,4,5,5,6,6],"right_children":[2,4,6,8,10,12,14,-1,-1,-1,-1,-1,-1,-1,-1],"split_conditions":[1E0,1E0,2.1E0,1E0,1.31E2,1E0,4.6E1,1.1859717E-3,-3.5596662E-3,2.32767E-3,-3.9402707E-3,3.6009082E-3,5.845403E-4,3.0622145E-3,-4.315109E-3],"split_indices":[16,9,7,6,3,9,0,0,0,0,0,0,0,0,0],"split_type":[0,0,0,0,0,0,0,0,0,0,0,0,0,0,0],"sum_hessian":[2.27E2,1.07E2,1.2E2,4.5E1,6.2E1,1.09E2,1.1E1,2.8E1,1.7E1,1E0,6.1E1,7.8E1,3.1E1,2E0,9E0],"tree_param":{"num_deleted":"0","num_feature":"18","num_nodes":"15","size_leaf_vector":"1"}},{"base_weights":[-5.2231055E-5,-2.4691564E-1,2.202891E-1,-6.3929856E-2,-3.76605E-1,2.728974E-1,-2.8031108E-1,-3.980592E-3,9.469108E-4,2.3160316E-3,-3.9015035E-3,3.5653552E-3,5.788775E-4,3.0417999E-3,-4.276273E-3],"categories":[],"categories_nodes":[],"categories_segments":[],"categories_sizes":[],"default_left":[0,0,0,0,0,0,0,0,0,0,0,0,0,0,0],"id":9,"left_children":[1,3,5,7,9,11,13,-1,-1,-1,-1,-1,-1,-1,-1],"loss_changes":[1.2456273E1,2.5389056E0,3.2631187E0,2.4756885E0,6.0937786E-1,1.9574909E0,1.1633358E0,0E0,0E0,0E0,0E0,0E0,0E0,0E0,0E0],"parents":[2147483647,0,0,1,1,2,2,3,3,4,4,5,5,6,6],"right_children":[2,4,6,8,10,12,14,-1,-1,-1,-1,-1,-1,-1,-1],"split_conditions":[1E0,1E0,2.1E0,5.2E1,1.31E2,1E0,4.6E1,-3.980592E-3,9.469108E-4,2.3160316E-3,-3.9015035E-3,3.5653552E-3,5.788775E-4,3.0417999E-3,-4.276273E-3],"split_indices":[16,9,7,0,3,9,0,0,0,0,0,0,0,0,0],"split_type":[0,0,0,0,0,0,0,0,0,0,0,0,0,0,0],"sum_hessian":[2.27E2,1.07E2,1.2E2,4.5E1,6.2E1,1.09E2,1.1E1,1.4E1,3.1E1,1E0,6.1E1,7.8E1,3.1E1,2E0,9E0],"tree_param":{"num_deleted":"0","num_feature":"18","num_nodes":"15","size_leaf_vector":"1"}},{"base_weights":[-5.9213555E-5,-2.4448925E-1,2.1811025E-1,-6.3356526E-2,-3.7286413E-1,2.702061E-1,-2.7761084E-1,1.1789714E-3,-3.5185649E-3,2.3044513E-3,-3.8631177E-3,3.5301526E-3,5.732696E-4,3.0215213E-3,-4.2377864E-3],"categories":[],"categories_nodes":[],"categories_segments":[],"categories_sizes":[],"default_left":[0,0,0,0,0,0,0,0,0,0,0,0,0,0,0],"id":10,"left_children":[1,3,5,7,9,11,13,-1,-1,-1,-1,-1,-1,-1,-1],"loss_changes":[1.2211921E1,2.487689E0,3.1998377E0,2.4469004E0,6.001482E-1,1.9188814E0,1.1449578E0,0E0,0E0,0E0,0E0,0E0,0E0,0E0,0E0],"parents":[2147483647,0,0,1,1,2,2,3,3,4,4,5,5,6,6],"right_children":[2,4,6,8,10,12,14,-1,-1,-1,-1,-1,-1,-1,-1],"split_conditions":[1E0,1E0,2.1E0,1E0,1.31E2,1E0,4.6E1,1.1789714E-3,-3.5185649E-3,2.3044513E-3,-3.8631177E-3,3.5301526E-3,5.732696E-4,3.0215213E-3,-4.2377864E-3],"split_indices":[16,9,7,6,3,9,0,0,0,0,0,0,0,0,0],"split_type":[0,0,0,0,0,0,0,0,0,0,0,0,0,0,0],"sum_hessian":[2.27E2,1.07E2,1.2E2,4.5E1,6.2E1,1.09E2,1.1E1,2.8E1,1.7E1,1E0,6.1E1,7.8E1,3.1E1,2E0,9E0],"tree_param":{"num_deleted":"0","num_feature":"18","num_nodes":"15","size_leaf_vector":"1"}},{"base_weights":[-6.305335E-5,-2.4208046E-1,2.15953E-1,7.85545E-4,-3.3550054E-1,2.6754132E-1,-2.7493608E-1,1.7407077E-3,-1.9565674E-3,-3.8802032E-3,1.7255024E-3,3.4952979E-3,5.67716E-4,3.0013775E-3,-4.199646E-3],"categories":[],"categories_nodes":[],"categories_segments":[],"categories_sizes":[],"default_left":[0,0,0,0,0,0,0,0,0,0,0,0,0,0,0],"id":11,"left_children":[1,3,5,7,9,11,13,-1,-1,-1,-1,-1,-1,-1,-1],"loss_changes":[1.1972037E1,2.4506273E0,3.1377783E0,1.0893152E0,2.1482067E0,1.881032E0,1.1268725E0,0E0,0E0,0E0,0E0,0E0,0E0,0E0,0E0],"parents":[2147483647,0,0,1,1,2,2,3,3,4,4,5,5,6,6],"right_children":[2,4,6,8,10,12,14,-1,-1,-1,-1,-1,-1,-1,-1],"split_conditions":[1E0,6E-1,2.1E0,2.35E2,1E0,1E0,4.6E1,1.7407077E-3,-1.9565674E-3,-3.8802032E-3,1.7255024E-3,3.4952979E-3,5.67716E-4,3.0013775E-3,-4.199646E-3],"split_indices":[16,7,7,3,12,9,0,0,0,0,0,0,0,0,0],"split_type":[0,0,0,0,0,0,0,0,0,0,0,0,0,0,0],"sum_hessian":[2.27E2,1.07E2,1.2E2,3E1,7.7E1,1.09E2,1.1E1,1.6E1,1.4E1,7E1,7E0,7.8E1,3.1E1,2E0,9E0],"tree_param":{"num_deleted":"0","num_feature":"18","num_nodes":"15","size_leaf_vector":"1"}},{"base_weights":[-6.024814E-5,-2.396816E-1,2.1381716E-1,-6.122349E-2,-3.6617988E-1,2.6490286E-1,-2.7228656E-1,-3.9156894E-3,9.5539185E-4,2.2842258E-3,-3.7945448E-3,3.4607877E-3,5.622161E-4,2.9813682E-3,-4.161849E-3],"categories":[],"categories_nodes":[],"categories_segments":[],"categories_sizes":[],"default_left":[0,0,0,0,0,0,0,0,0,0,0,0,0,0,0],"id":12,"left_children":[1,3,5,7,9,11,13,-1,-1,-1,-1,-1,-1,-1,-1],"loss_changes":[1.17361555E1,2.4156423E0,3.0769162E0,2.419559E0,5.839424E-1,1.8439307E0,1.109076E0,0E0,0E0,0E0,0E0,0E0,0E0,0E0,0E0],"parents":[2147483647,0,0,1,1,2,2,3,3,4,4,5,5,6,6],"right_children":[2,4,6,8,10,12,14,-1,-1,-1,-1,-1,-1,-1,-1],"split_conditions":[1E0,1E0,2.1E0,5.2E1,1.31E2,1E0,4.6E1,-3.9156894E-3,9.5539185E-4,2.2842258E-3,-3.7945448E-3,3.4607877E-3,5.622161E-4,2.9813682E-3,-4.161849E-3],"split_indices":[16,9,7,0,3,9,0,0,0,0,0,0,0,0,0],"split_type":[0,0,0,0,0,0,0,0,0,0,0,0,0,0,0],"sum_hessian":[2.27E2,1.07E2,1.2E2,4.5E1,6.2E1,1.09E2,1.1E1,1.4E1,3.1E1,1E0,6.1E1,7.8E1,3.1E1,2E0,9E0],"tree_param":{"num_deleted":"0","num_feature":"18","num_nodes":"15","size_leaf_vector":"1"}},{"base_weights":[-6.677563E-5,-2.3732617E-1,2.117025E-1,2.2666012E-3,-3.295063E-1,2.6229045E-1,-2.6966208E-1,1.9680103E-3,-1.6951476E-3,-3.81308E-3,1.7142224E-3,3.4266182E-3,5.567699E-4,2.9614924E-3,-4.1243928E-3],"categories":[],"categories_nodes":[],"categories_segments":[],"categories_sizes":[],"default_left":[0,0,0,0,0,0,0,0,0,0,0,0,0,0,0],"id":13,"left_children":[1,3,5,7,9,11,13,-1,-1,-1,-1,-1,-1,-1,-1],"loss_changes":[1.1505933E1,2.386002E0,3.01723E0,1.0692997E0,2.0893831E0,1.8075609E0,1.091563E0,0E0,0E0,0E0,0E0,0E0,0E0,0E0,0E0],"parents":[2147483647,0,0,1,1,2,2,3,3,4,4,5,5,6,6],"right_children":[2,4,6,8,10,12,14,-1,-1,-1,-1,-1,-1,-1,-1],"split_conditions":[1E0,6E-1,2.1E0,2.34E2,1E0,1E0,4.6E1,1.9680103E-3,-1.6951476E-3,-3.81308E-3,1.7142224E-3,3.4266182E-3,5.567699E-4,2.9614924E-3,-4.1243928E-3],"split_indices":[16,7,7,3,12,9,0,0,0,0,0,0,0,0,0],"split_type":[0,0,0,0,0,0,0,0,0,0,0,0,0,0,0],"sum_hessian":[2.27E2,1.07E2,1.2E2,3E1,7.7E1,1.09E2,1.1E1,1.4E1,1.6E1,7E1,7E0,7.8E1,3.1E1,2E0,9E0],"tree_param":{"num_deleted":"0","num_feature":"18","num_nodes":"15","size_leaf_vector":"1"}},{"base_weights":[-6.174048E-5,-2.3496982E-1,2.096088E-1,-5.916028E-2,-3.59609E-1,2.5970376E-1,-2.6706237E-1,-3.860044E-3,9.5896673E-4,2.2629646E-3,-3.7270903E-3,3.3927858E-3,5.513762E-4,2.941749E-3,-4.087273E-3],"categories":[],"categories_nodes":[],"categories_segments":[],"categories_sizes":[],"default_left":[0,0,0,0,0,0,0,0,0,0,0,0,0,0,0],"id":14,"left_children":[1,3,5,7,9,11,13,-1,-1,-1,-1,-1,-1,-1,-1],"loss_changes":[1.1279004E1,2.345304E0,2.9586945E0,2.3682716E0,5.678911E-1,1.7719083E0,1.0743291E0,0E0,0E0,0E0,0E0,0E0,0E0,0E0,0E0],"parents":[2147483647,0,0,1,1,2,2,3,3,4,4,5,5,6,6],"right_children":[2,4,6,8,10,12,14,-1,-1,-1,-1,-1,-1,-1,-1],"split_conditions":[1E0,1E0,2.1E0,5.2E1,1.31E2,1E0,4.6E1,-3.860044E-3,9.5896673E-4,2.2629646E-3,-3.7270903E-3,3.3927858E-3,5.513762E-4,2.941749E-3,-4.087273E-3],"split_indices":[16,9,7,0,3,9,0,0,0,0,0,0,0,0,0],"split_type":[0,0,0,0,0,0,0,0,0,0,0,0,0,0,0],"sum_hessian":[2.27E2,1.07E2,1.2E2,4.5E1,6.2E1,1.09E2,1.1E1,1.4E1,3.1E1,1E0,6.1E1,7.8E1,3.1E1,2E0,9E0],"tree_param":{"num_deleted":"0","num_feature":"18","num_nodes":"15","size_leaf_vector":"1"}},{"base_weights":[-6.801151E-5,-2.3266055E-1,2.075358E-1,3.7141144E-3,-3.236215E-1,2.5714254E-1,-2.644872E-1,1.961868E-3,-1.6633321E-3,-3.747152E-3,1.7028793E-3,3.359287E-3,5.460345E-4,2.9221375E-3,-4.0504877E-3],"categories":[],"categories_nodes":[],"categories_segments":[],"categories_sizes":[],"default_left":[0,0,0,0,0,0,0,0,0,0,0,0,0,0,0],"id":15,"left_children":[1,3,5,7,9,11,13,-1,-1,-1,-1,-1,-1,-1,-1],"loss_changes":[1.1057744E1,2.323295E0,2.901289E0,1.0472459E0,2.0321922E0,1.736958E0,1.0573702E0,0E0,0E0,0E0,0E0,0E0,0E0,0E0,0E0],"parents":[2147483647,0,0,1,1,2,2,3,3,4,4,5,5,6,6],"right_children":[2,4,6,8,10,12,14,-1,-1,-1,-1,-1,-1,-1,-1],"split_conditions":[1E0,6E-1,2.1E0,2.34E2,1E0,1E0,4.6E1,1.961868E-3,-1.6633321E-3,-3.747152E-3,1.7028793E-3,3.359287E-3,5.460345E-4,2.9221375E-3,-4.0504877E-3],"split_indices":[16,7,7,3,12,9,0,0,0,0,0,0,0,0,0],"split_type":[0,0,0,0,0,0,0,0,0,0,0,0,0,0,0],"sum_hessian":[2.27E2,1.07E2,1.2E2,3E1,7.7E1,1.09E2,1.1E1,1.4E1,1.6E1,7E1,7E0,7.8E1,3.1E1,2E0,9E0],"tree_param":{"num_deleted":"0","num_feature":"18","num_nodes":"15","size_leaf_vector":"1"}},{"base_weights":[-6.279637E-5,-2.303501E-1,2.0548342E-1,-9.562453E-2,-3.9061916E-1,2.5460663E-1,-2.6193637E-1,1.1946226E-3,-2.8755867E-3,-1.6152763E-3,-4.249552E-3,3.3261196E-3,5.4074475E-4,2.9026568E-3,-4.0140334E-3],"categories":[],"categories_nodes":[],"categories_segments":[],"categories_sizes":[],"default_left":[0,0,0,0,0,0,0,0,0,0,0,0,0,0,0],"id":16,"left_children":[1,3,5,7,9,11,13,-1,-1,-1,-1,-1,-1,-1,-1],"loss_changes":[1.0839641E1,2.2946205E0,2.8449917E0,2.5113022E0,3.167963E-1,1.7026987E0,1.0406811E0,0E0,0E0,0E0,0E0,0E0,0E0,0E0,0E0],"parents":[2147483647,0,0,1,1,2,2,3,3,4,4,5,5,6,6],"right_children":[2,4,6,8,10,12,14,-1,-1,-1,-1,-1,-1,-1,-1],"split_conditions":[1E0,1E0,2.1E0,1E0,3E-1,1E0,4.6E1,1.1946226E-3,-2.8755867E-3,-1.6152763E-3,-4.249552E-3,3.3261196E-3,5.4074475E-4,2.9026568E-3,-4.0140334E-3],"split_indices":[16,6,7,9,7,9,0,0,0,0,0,0,0,0,0],"split_type":[0,0,0,0,0,0,0,0,0,0,0,0,0,0,0],"sum_hessian":[2.27E2,1.07E2,1.2E2,5.9E1,4.8E1,1.09E2,1.1E1,2.8E1,3.1E1,7E0,4.1E1,7.8E1,3.1E1,2E0,9E0],"tree_param":{"num_deleted":"0","num_feature":"18","num_nodes":"15","size_leaf_vector":"1"}},{"base_weights":[-8.3173574E-5,-2.2811647E-1,2.0345137E-1,-9.469628E-2,-3.8683268E-1,2.5209573E-1,-2.594096E-1,1.1830885E-3,-2.8477293E-3,-1.6011426E-3,-4.2080684E-3,3.2932796E-3,5.3550635E-4,2.8833055E-3,-3.977907E-3],"categories":[],"categories_nodes":[],"categories_segments":[],"categories_sizes":[],"default_left":[0,0,0,0,0,0,0,0,0,0,0,0,0,0,0],"id":17,"left_children":[1,3,5,7,9,11,13,-1,-1,-1,-1,-1,-1,-1,-1],"loss_changes":[1.0628494E1,2.25037E0,2.7897816E0,2.4629295E0,3.100481E-1,1.6691132E0,1.0242577E0,0E0,0E0,0E0,0E0,0E0,0E0,0E0,0E0],"parents":[2147483647,0,0,1,1,2,2,3,3,4,4,5,5,6,6],"right_children":[2,4,6,8,10,12,14,-1,-1,-1,-1,-1,-1,-1,-1],"split_conditions":[1E0,1E0,2.1E0,1E0,3E-1,1E0,4.6E1,1.1830885E-3,-2.8477293E-3,-1.6011426E-3,-4.2080684E-3,3.2932796E-3,5.3550635E-4,2.8833055E-3,-3.977907E-3],"split_indices":[16,6,7,9,7,9,0,0,0,0,0,0,0,0,0],"split_type":[0,0,0,0,0,0,0,0,0,0,0,0,0,0,0],"sum_hessian":[2.27E2,1.07E2,1.2E2,5.9E1,4.8E1,1.09E2,1.1E1,2.8E1,3.1E1,7E0,4.1E1,7.8E1,3.1E1,2E0,9E0],"tree_param":{"num_deleted":"0","num_feature":"18","num_nodes":"15","size_leaf_vector":"1"}},{"base_weights":[-1.0312898E-4,-2.2590451E-1,2.0143946E-1,5.000697E-3,-3.147783E-1,3.0125266E-1,-2.4501322E-2,1.733844E-3,-1.8616756E-3,-3.6475046E-3,1.6807183E-3,3.4796223E-3,-8.0016354E-5,2.0039256E-3,-2.5994217E-3],"categories":[],"categories_nodes":[],"categories_segments":[],"categories_sizes":[],"default_left":[0,0,0,0,0,0,0,0,0,0,0,0,0,0,0],"id":18,"left_children":[1,3,5,7,9,11,13,-1,-1,-1,-1,-1,-1,-1,-1],"loss_changes":[1.0421465E1,2.2178884E0,2.736158E0,1.0301569E0,1.9433708E0,1.216176E0,2.0641606E0,0E0,0E0,0E0,0E0,0E0,0E0,0E0,0E0],"parents":[2147483647,0,0,1,1,2,2,3,3,4,4,5,5,6,6],"right_children":[2,4,6,8,10,12,14,-1,-1,-1,-1,-1,-1,-1,-1],"split_conditions":[1E0,6E-1,1E0,2.35E2,1E0,1.44E2,6E-1,1.733844E-3,-1.8616756E-3,-3.6475046E-3,1.6807183E-3,3.4796223E-3,-8.0016354E-5,2.0039256E-3,-2.5994217E-3],"split_indices":[16,7,9,3,12,2,7,0,0,0,0,0,0,0,0],"split_type":[0,0,0,0,0,0,0,0,0,0,0,0,0,0,0],"sum_hessian":[2.27E2,1.07E2,1.2E2,3E1,7.7E1,8.3E1,3.7E1,1.6E1,1.4E1,7E1,7E0,7.2E1,1.1E1,1.9E1,1.8E1],"tree_param":{"num_deleted":"0","num_feature":"18","num_nodes":"15","size_leaf_vector":"1"}},{"base_weights":[-9.8979006E-5,-2.2366485E-1,1.9944824E-1,-9.22467E-2,-3.8002047E-1,2.4737091E-1,-2.564636E-1,1.1773191E-3,-2.796571E-3,-1.5798319E-3,-4.1326517E-3,3.2304635E-3,5.2816846E-4,2.8408861E-3,-3.9298288E-3],"categories":[],"categories_nodes":[],"categories_segments":[],"categories_sizes":[],"default_left":[0,0,0,0,0,0,0,0,0,0,0,0,0,0,0],"id":19,"left_children":[1,3,5,7,9,11,13,-1,-1,-1,-1,-1,-1,-1,-1],"loss_changes":[1.0216134E1,2.1841245E0,2.7071118E0,2.3940551E0,2.964077E-1,1.6024632E0,9.9719185E-1,0E0,0E0,0E0,0E0,0E0,0E0,0E0,0E0],"parents":[2147483647,0,0,1,1,2,2,3,3,4,4,5,5,6,6],"right_children":[2,4,6,8,10,12,14,-1,-1,-1,-1,-1,-1,-1,-1],"split_conditions":[1E0,1E0,2.1E0,1E0,3E-1,1E0,4.6E1,1.1773191E-3,-2.796571E-3,-1.5798319E-3,-4.1326517E-3,3.2304635E-3,5.2816846E-4,2.8408861E-3,-3.9298288E-3],"split_indices":[16,6,7,9,7,9,0,0,0,0,0,0,0,0,0],"split_type":[0,0,0,0,0,0,0,0,0,0,0,0,0,0,0],"sum_hessian":[2.27E2,1.07E2,1.2E2,5.9E1,4.8E1,1.09E2,1.1E1,2.8E1,3.1E1,7E0,4.1E1,7.8E1,3.1E1,2E0,9E0],"tree_param":{"num_deleted":"0","num_feature":"18","num_nodes":"15","size_leaf_vector":"1"}},{"base_weights":[-1.184309E-4,-2.2149609E-1,1.9747584E-1,5.583519E-3,-3.08906E-1,2.4493138E-1,-2.539897E-1,1.7237143E-3,-1.8381501E-3,-3.5809218E-3,1.6623479E-3,3.1985678E-3,5.2305195E-4,2.821947E-3,-3.8944604E-3],"categories":[],"categories_nodes":[],"categories_segments":[],"categories_sizes":[],"default_left":[0,0,0,0,0,0,0,0,0,0,0,0,0,0,0],"id":20,"left_children":[1,3,5,7,9,11,13,-1,-1,-1,-1,-1,-1,-1,-1],"loss_changes":[1.0017135E1,2.1454177E0,2.6545806E0,1.0109555E0,1.8824162E0,1.5708542E0,9.814547E-1,0E0,0E0,0E0,0E0,0E0,0E0,0E0,0E0],"parents":[2147483647,0,0,1,1,2,2,3,3,4,4,5,5,6,6],"right_children":[2,4,6,8,10,12,14,-1,-1,-1,-1,-1,-1,-1,-1],"split_conditions":[1E0,6E-1,2.1E0,2.35E2,1E0,1E0,4.6E1,1.7237143E-3,-1.8381501E-3,-3.5809218E-3,1.6623479E-3,3.1985678E-3,5.2305195E-4,2.821947E-3,-3.8944604E-3],"split_indices":[16,7,7,3,12,9,0,0,0,0,0,0,0,0,0],"split_type":[0,0,0,0,0,0,0,0,0,0,0,0,0,0,0],"sum_hessian":[2.27E2,1.07E2,1.2E2,3E1,7.7E1,1.09E2,1.1E1,1.6E1,1.4E1,7E1,7E0,7.8E1,3.1E1,2E0,9E0],"tree_param":{"num_deleted":"0","num_feature":"18","num_nodes":"15","size_leaf_vector":"1"}},{"base_weights":[-1.14539216E-4,-2.1929996E-1,1.9552298E-1,-5.2165665E-2,-3.3785355E-1,2.425159E-1,-2.515392E-1,-3.7371411E-3,1.0019034E-3,2.267152E-3,-3.5061622E-3,3.1669869E-3,5.179851E-4,2.803134E-3,-3.8594105E-3],"categories":[],"categories_nodes":[],"categories_segments":[],"categories_sizes":[],"default_left":[0,0,0,0,0,0,0,0,0,0,0,0,0,0,0],"id":21,"left_children":[1,3,5,7,9,11,13,-1,-1,-1,-1,-1,-1,-1,-1],"loss_changes":[9.819722E0,2.1223278E0,2.6030622E0,2.290975E0,5.334296E-1,1.5398698E0,9.659683E-1,0E0,0E0,0E0,0E0,0E0,0E0,0E0,0E0],"parents":[2147483647,0,0,1,1,2,2,3,3,4,4,5,5,6,6],"right_children":[2,4,6,8,10,12,14,-1,-1,-1,-1,-1,-1,-1,-1],"split_conditions":[1E0,1E0,2.1E0,5.2E1,1.31E2,1E0,4.6E1,-3.7371411E-3,1.0019034E-3,2.267152E-3,-3.5061622E-3,3.1669869E-3,5.179851E-4,2.803134E-3,-3.8594105E-3],"split_indices":[16,9,7,0,3,9,0,0,0,0,0,0,0,0,0],"split_type":[0,0,0,0,0,0,0,0,0,0,0,0,0,0,0],"sum_hessian":[2.27E2,1.07E2,1.2E2,4.5E1,6.2E1,1.09E2,1.1E1,1.4E1,3.1E1,1E0,6.1E1,7.8E1,3.1E1,2E0,9E0],"tree_param":{"num_deleted":"0","num_feature":"18","num_nodes":"15","size_leaf_vector":"1"}},{"base_weights":[-1.1928903E-4,-2.1714376E-1,1.9358948E-1,-8.7973855E-2,-3.7087947E-1,2.4012427E-1,-2.4911183E-1,1.1748387E-3,-2.7142074E-3,-1.5394208E-3,-4.033704E-3,3.135718E-3,5.129673E-4,2.7844463E-3,-3.824676E-3],"categories":[],"categories_nodes":[],"categories_segments":[],"categories_sizes":[],"default_left":[0,0,0,0,0,0,0,0,0,0,0,0,0,0,0],"id":22,"left_children":[1,3,5,7,9,11,13,-1,-1,-1,-1,-1,-1,-1,-1],"loss_changes":[9.627053E0,2.112039E0,2.5525403E0,2.2933226E0,2.8328037E-1,1.5094957E0,9.5072836E-1,0E0,0E0,0E0,0E0,0E0,0E0,0E0,0E0],"parents":[2147483647,0,0,1,1,2,2,3,3,4,4,5,5,6,6],"right_children":[2,4,6,8,10,12,14,-1,-1,-1,-1,-1,-1,-1,-1],"split_conditions":[1E0,1E0,2.1E0,1E0,3E-1,1E0,4.6E1,1.1748387E-3,-2.7142074E-3,-1.5394208E-3,-4.033704E-3,3.135718E-3,5.129673E-4,2.7844463E-3,-3.824676E-3],"split_indices":[16,6,7,9,7,9,0,0,0,0,0,0,0,0,0],"split_type":[0,0,0,0,0,0,0,0,0,0,0,0,0,0,0],"sum_hessian":[2.27E2,1.07E2,1.2E2,5.9E1,4.8E1,1.09E2,1.1E1,2.8E1,3.1E1,7E0,4.1E1,7.8E1,3.1E1,2E0,9E0],"tree_param":{"num_deleted":"0","num_feature":"18","num_nodes":"15","size_leaf_vector":"1"}},{"base_weights":[-1.378556E-4,-2.1503817E-1,1.9167514E-1,-8.711978E-2,-3.6728442E-1,2.3775618E-1,-2.467074E-1,1.1634952E-3,-2.6879134E-3,-1.5259509E-3,-3.9943275E-3,3.1047575E-3,5.07998E-4,2.7658835E-3,-3.7902535E-3],"categories":[],"categories_nodes":[],"categories_segments":[],"categories_sizes":[],"default_left":[0,0,0,0,0,0,0,0,0,0,0,0,0,0,0],"id":23,"left_children":[1,3,5,7,9,11,13,-1,-1,-1,-1,-1,-1,-1,-1],"loss_changes":[9.43953E0,2.0713124E0,2.5029922E0,2.2491488E0,2.7724218E-1,1.4797206E0,9.3573135E-1,0E0,0E0,0E0,0E0,0E0,0E0,0E0,0E0],"parents":[2147483647,0,0,1,1,2,2,3,3,4,4,5,5,6,6],"right_children":[2,4,6,8,10,12,14,-1,-1,-1,-1,-1,-1,-1,-1],"split_conditions":[1E0,1E0,2.1E0,1E0,3E-1,1E0,4.6E1,1.1634952E-3,-2.6879134E-3,-1.5259509E-3,-3.9943275E-3,3.1047575E-3,5.07998E-4,2.7658835E-3,-3.7902535E-3],"split_indices":[16,6,7,9,7,9,0,0,0,0,0,0,0,0,0],"split_type":[0,0,0,0,0,0,0,0,0,0,0,0,0,0,0],"sum_hessian":[2.27E2,1.07E2,1.2E2,5.9E1,4.8E1,1.09E2,1.1E1,2.8E1,3.1E1,7E0,4.1E1,7.8E1,3.1E1,2E0,9E0],"tree_param":{"num_deleted":"0","num_feature":"18","num_nodes":"15","size_leaf_vector":"1"}},{"base_weights":[-1.56023E-4,-2.1295303E-1,1.8977977E-1,8.067197E-3,-2.9806423E-1,2.3541147E-1,-2.4432568E-1,1.9518243E-3,-1.5750901E-3,-3.459678E-3,1.6433806E-3,3.0741033E-3,5.0307665E-4,2.7474442E-3,-3.7561413E-3],"categories":[],"categories_nodes":[],"categories_segments":[],"categories_sizes":[],"default_left":[0,0,0,0,0,0,0,0,0,0,0,0,0,0,0],"id":24,"left_children":[1,3,5,7,9,11,13,-1,-1,-1,-1,-1,-1,-1,-1],"loss_changes":[9.255665E0,2.0340252E0,2.454402E0,9.911798E-1,1.7846112E0,1.4505334E0,9.209729E-1,0E0,0E0,0E0,0E0,0E0,0E0,0E0,0E0],"parents":[2147483647,0,0,1,1,2,2,3,3,4,4,5,5,6,6],"right_children":[2,4,6,8,10,12,14,-1,-1,-1,-1,-1,-1,-1,-1],"split_conditions":[1E0,6E-1,2.1E0,2.34E2,1E0,1E0,4.6E1,1.9518243E-3,-1.5750901E-3,-3.459678E-3,1.6433806E-3,3.0741033E-3,5.0307665E-4,2.7474442E-3,-3.7561413E-3],"split_indices":[16,7,7,3,12,9,0,0,0,0,0,0,0,0,0],"split_type":[0,0,0,0,0,0,0,0,0,0,0,0,0,0,0],"sum_hessian":[2.27E2,1.07E2,1.2E2,3E1,7.7E1,1.09E2,1.1E1,1.4E1,1.6E1,7E1,7E0,7.8E1,3.1E1,2E0,9E0],"tree_param":{"num_deleted":"0","num_feature":"18","num_nodes":"15","size_leaf_vector":"1"}},{"base_weights":[-1.4950584E-4,-2.1083681E-1,1.8790321E-1,-8.481007E-2,-3.6085248E-1,2.3308988E-1,-2.4196649E-1,1.1574962E-3,-2.63917E-3,-1.5076342E-3,-3.9227773E-3,3.0437515E-3,4.9820327E-4,2.7291283E-3,-3.7223361E-3],"categories":[],"categories_nodes":[],"categories_segments":[],"categories_sizes":[],"default_left":[0,0,0,0,0,0,0,0,0,0,0,0,0,0,0],"id":25,"left_children":[1,3,5,7,9,11,13,-1,-1,-1,-1,-1,-1,-1,-1],"loss_changes":[9.0730505E0,2.0112424E0,2.4067492E0,2.185846E0,2.6436234E-1,1.4219222E0,9.064497E-1,0E0,0E0,0E0,0E0,0E0,0E0,0E0,0E0],"parents":[2147483647,0,0,1,1,2,2,3,3,4,4,5,5,6,6],"right_children":[2,4,6,8,10,12,14,-1,-1,-1,-1,-1,-1,-1,-1],"split_conditions":[1E0,1E0,2.1E0,1E0,3E-1,1E0,4.6E1,1.1574962E-3,-2.63917E-3,-1.5076342E-3,-3.9227773E-3,3.0437515E-3,4.9820327E-4,2.7291283E-3,-3.7223361E-3],"split_indices":[16,6,7,9,7,9,0,0,0,0,0,0,0,0,0],"split_type":[0,0,0,0,0,0,0,0,0,0,0,0,0,0,0],"sum_hessian":[2.27E2,1.07E2,1.2E2,5.9E1,4.8E1,1.09E2,1.1E1,2.8E1,3.1E1,7E0,4.1E1,7.8E1,3.1E1,2E0,9E0],"tree_param":{"num_deleted":"0","num_feature":"18","num_nodes":"15","size_leaf_vector":"1"}},{"base_weights":[-1.6715037E-4,-2.0879245E-1,1.8604523E-1,-8.398668E-2,-3.5735476E-1,2.3079117E-1,-2.3962958E-1,1.1463203E-3,-2.613603E-3,-1.4944423E-3,-3.8844831E-3,3.013699E-3,4.9337716E-4,2.710934E-3,-3.688835E-3],"categories":[],"categories_nodes":[],"categories_segments":[],"categories_sizes":[],"default_left":[0,0,0,0,0,0,0,0,0,0,0,0,0,0,0],"id":26,"left_children":[1,3,5,7,9,11,13,-1,-1,-1,-1,-1,-1,-1,-1],"loss_changes":[8.896329E0,1.9724622E0,2.3600173E0,2.1437433E0,2.5871706E-1,1.3938742E0,8.921574E-1,0E0,0E0,0E0,0E0,0E0,0E0,0E0,0E0],"parents":[2147483647,0,0,1,1,2,2,3,3,4,4,5,5,6,6],"right_children":[2,4,6,8,10,12,14,-1,-1,-1,-1,-1,-1,-1,-1],"split_conditions":[1E0,1E0,2.1E0,1E0,3E-1,1E0,4.6E1,1.1463203E-3,-2.613603E-3,-1.4944423E-3,-3.8844831E-3,3.013699E-3,4.9337716E-4,2.710934E-3,-3.688835E-3],"split_indices":[16,6,7,9,7,9,0,0,0,0,0,0,0,0,0],"split_type":[0,0,0,0,0,0,0,0,0,0,0,0,0,0,0],"sum_hessian":[2.27E2,1.07E2,1.2E2,5.9E1,4.8E1,1.09E2,1.1E1,2.8E1,3.1E1,7E0,4.1E1,7.8E1,3.1E1,2E0,9E0],"tree_param":{"num_deleted":"0","num_feature":"18","num_nodes":"15","size_leaf_vector":"1"}},{"base_weights":[-1.8439678E-4,-2.067679E-1,1.8420571E-1,9.161132E-3,-2.89935E-1,2.2851516E-1,-2.3731478E-1,1.7274807E-3,-1.7684815E-3,-3.3679032E-3,1.6214815E-3,2.9839438E-3,4.885979E-4,2.6928612E-3,-3.6556355E-3],"categories":[],"categories_nodes":[],"categories_segments":[],"categories_sizes":[],"default_left":[0,0,0,0,0,0,0,0,0,0,0,0,0,0,0],"id":27,"left_children":[1,3,5,7,9,11,13,-1,-1,-1,-1,-1,-1,-1,-1],"loss_changes":[8.723054E0,1.9421401E0,2.3141885E0,9.738396E-1,1.7068453E0,1.3663802E0,8.780925E-1,0E0,0E0,0E0,0E0,0E0,0E0,0E0,0E0],"parents":[2147483647,0,0,1,1,2,2,3,3,4,4,5,5,6,6],"right_children":[2,4,6,8,10,12,14,-1,-1,-1,-1,-1,-1,-1,-1],"split_conditions":[1E0,6E-1,2.1E0,2.35E2,1E0,1E0,4.6E1,1.7274807E-3,-1.7684815E-3,-3.3679032E-3,1.6214815E-3,2.9839438E-3,4.885979E-4,2.6928612E-3,-3.6556355E-3],"split_indices":[16,7,7,3,12,9,0,0,0,0,0,0,0,0,0],"split_type":[0,0,0,0,0,0,0,0,0,0,0,0,0,0,0],"sum_hessian":[2.27E2,1.07E2,1.2E2,3E1,7.7E1,1.09E2,1.1E1,1.6E1,1.4E1,7E1,7E0,7.8E1,3.1E1,2E0,9E0],"tree_param":{"num_deleted":"0","num_feature":"18","num_nodes":"15","size_leaf_vector":"1"}},{"base_weights":[-1.7937756E-4,-2.0471677E-1,1.8238442E-1,-8.1787266E-2,-3.5106483E-1,2.262616E-1,-2.3502186E-1,1.1400818E-3,-2.5667103E-3,-1.4746318E-3,-3.814874E-3,2.954482E-3,4.8386477E-4,2.6749086E-3,-3.6227347E-3],"categories":[],"categories_nodes":[],"categories_segments":[],"categories_sizes":[],"default_left":[0,0,0,0,0,0,0,0,0,0,0,0,0,0,0],"id":28,"left_children":[1,3,5,7,9,11,13,-1,-1,-1,-1,-1,-1,-1,-1],"loss_changes":[8.551113E0,1.9142604E0,2.2692447E0,2.0837495E0,2.4725533E-1,1.3394275E0,8.6425155E-1,0E0,0E0,0E0,0E0,0E0,0E0,0E0,0E0],"parents":[2147483647,0,0,1,1,2,2,3,3,4,4,5,5,6,6],"right_children":[2,4,6,8,10,12,14,-1,-1,-1,-1,-1,-1,-1,-1],"split_conditions":[1E0,1E0,2.1E0,1E0,3E-1,1E0,4.6E1,1.1400818E-3,-2.5667103E-3,-1.4746318E-3,-3.814874E-3,2.954482E-3,4.8386477E-4,2.6749086E-3,-3.6227347E-3],"split_indices":[16,6,7,9,7,9,0,0,0,0,0,0,0,0,0],"split_type":[0,0,0,0,0,0,0,0,0,0,0,0,0,0,0],"sum_hessian":[2.27E2,1.07E2,1.2E2,5.9E1,4.8E1,1.09E2,1.1E1,2.8E1,3.1E1,7E0,4.1E1,7.8E1,3.1E1,2E0,9E0],"tree_param":{"num_deleted":"0","num_feature":"18","num_nodes":"15","size_leaf_vector":"1"}},{"base_weights":[-1.961147E-4,-2.0273179E-1,1.8058115E-1,9.631485E-3,-2.8453344E-1,2.2403024E-1,-2.3275062E-1,1.9334466E-3,-1.5303494E-3,-3.3065379E-3,1.6035116E-3,2.9253112E-3,4.7917725E-4,2.6570759E-3,-3.59013E-3],"categories":[],"categories_nodes":[],"categories_segments":[],"categories_sizes":[],"default_left":[0,0,0,0,0,0,0,0,0,0,0,0,0,0,0],"id":29,"left_children":[1,3,5,7,9,11,13,-1,-1,-1,-1,-1,-1,-1,-1],"loss_changes":[8.384566E0,1.8788805E0,2.2251685E0,9.5599145E-1,1.6534424E0,1.3130074E0,8.506308E-1,0E0,0E0,0E0,0E0,0E0,0E0,0E0,0E0],"parents":[2147483647,0,0,1,1,2,2,3,3,4,4,5,5,6,6],"right_children":[2,4,6,8,10,12,14,-1,-1,-1,-1,-1,-1,-1,-1],"split_conditions":[1E0,6E-1,2.1E0,2.34E2,1E0,1E0,4.6E1,1.9334466E-3,-1.5303494E-3,-3.3065379E-3,1.6035116E-3,2.9253112E-3,4.7917725E-4,2.6570759E-3,-3.59013E-3],"split_indices":[16,7,7,3,12,9,0,0,0,0,0,0,0,0,0],"split_type":[0,0,0,0,0,0,0,0,0,0,0,0,0,0,0],"sum_hessian":[2.27E2,1.07E2,1.2E2,3E1,7.7E1,1.09E2,1.1E1,1.4E1,1.6E1,7E1,7E0,7.8E1,3.1E1,2E0,9E0],"tree_param":{"num_deleted":"0","num_feature":"18","num_nodes":"15","size_leaf_vector":"1"}},{"base_weights":[-1.8902005E-4,-2.0071651E-1,1.7879575E-1,-7.960636E-2,-3.449184E-1,2.2182088E-1,-2.3050086E-1,1.1339053E-3,-2.5202208E-3,-1.4569978E-3,-3.7465245E-3,2.896428E-3,4.7453537E-4,2.639362E-3,-3.5578187E-3],"categories":[],"categories_nodes":[],"categories_segments":[],"categories_sizes":[],"default_left":[0,0,0,0,0,0,0,0,0,0,0,0,0,0,0],"id":30,"left_children":[1,3,5,7,9,11,13,-1,-1,-1,-1,-1,-1,-1,-1],"loss_changes":[8.219118E0,1.8586879E0,2.1819446E0,2.0251188E0,2.3566866E-1,1.2871075E0,8.3722675E-1,0E0,0E0,0E0,0E0,0E0,0E0,0E0,0E0],"parents":[2147483647,0,0,1,1,2,2,3,3,4,4,5,5,6,6],"right_children":[2,4,6,8,10,12,14,-1,-1,-1,-1,-1,-1,-1,-1],"split_conditions":[1E0,1E0,2.1E0,1E0,3E-1,1E0,4.6E1,1.1339053E-3,-2.5202208E-3,-1.4569978E-3,-3.7465245E-3,2.896428E-3,4.7453537E-4,2.639362E-3,-3.5578187E-3],"split_indices":[16,6,7,9,7,9,0,0,0,0,0,0,0,0,0],"split_type":[0,0,0,0,0,0,0,0,0,0,0,0,0,0,0],"sum_hessian":[2.27E2,1.07E2,1.2E2,5.9E1,4.8E1,1.09E2,1.1E1,2.8E1,3.1E1,7E0,4.1E1,7.8E1,3.1E1,2E0,9E0],"tree_param":{"num_deleted":"0","num_feature":"18","num_nodes":"15","size_leaf_vector":"1"}},{"base_weights":[-2.0527317E-4,-1.9877036E-1,1.7702807E-1,-7.88334E-2,-3.415754E-1,2.1963331E-1,-2.2827238E-1,1.1229571E-3,-2.495806E-3,-1.444249E-3,-3.7099512E-3,2.8678307E-3,4.6993853E-4,2.6217662E-3,-3.5257982E-3],"categories":[],"categories_nodes":[],"categories_segments":[],"categories_sizes":[],"default_left":[0,0,0,0,0,0,0,0,0,0,0,0,0,0,0],"id":31,"left_children":[1,3,5,7,9,11,13,-1,-1,-1,-1,-1,-1,-1,-1],"loss_changes":[8.059044E0,1.822854E0,2.1395555E0,1.9861126E0,2.306242E-1,1.2617197E0,8.240359E-1,0E0,0E0,0E0,0E0,0E0,0E0,0E0,0E0],"parents":[2147483647,0,0,1,1,2,2,3,3,4,4,5,5,6,6],"right_children":[2,4,6,8,10,12,14,-1,-1,-1,-1,-1,-1,-1,-1],"split_conditions":[1E0,1E0,2.1E0,1E0,3E-1,1E0,4.6E1,1.1229571E-3,-2.495806E-3,-1.444249E-3,-3.7099512E-3,2.8678307E-3,4.6993853E-4,2.6217662E-3,-3.5257982E-3],"split_indices":[16,6,7,9,7,9,0,0,0,0,0,0,0,0,0],"split_type":[0,0,0,0,0,0,0,0,0,0,0,0,0,0,0],"sum_hessian":[2.27E2,1.07E2,1.2E2,5.9E1,4.8E1,1.09E2,1.1E1,2.8E1,3.1E1,7E0,4.1E1,7.8E1,3.1E1,2E0,9E0],"tree_param":{"num_deleted":"0","num_feature":"18","num_nodes":"15","size_leaf_vector":"1"}},{"base_weights":[-2.2116996E-4,-1.9684309E-1,1.7527792E-1,1.0640326E-2,-2.767808E-1,-1.3512906E-1,2.3083572E-1,1.7130253E-3,-1.7215285E-3,-3.2189302E-3,1.5818751E-3,1.5950472E-3,-3.6390861E-3,3.0858223E-3,5.6567887E-4],"categories":[],"categories_nodes":[],"categories_segments":[],"categories_sizes":[],"default_left":[0,0,0,0,0,0,0,0,0,0,0,0,0,0,0],"id":32,"left_children":[1,3,5,7,9,11,13,-1,-1,-1,-1,-1,-1,-1,-1],"loss_changes":[7.902091E0,1.7942061E0,2.1179023E0,9.3989676E-1,1.5814648E0,1.3387628E0,1.3780622E0,0E0,0E0,0E0,0E0,0E0,0E0,0E0,0E0],"parents":[2147483647,0,0,1,1,2,2,3,3,4,4,5,5,6,6],"right_children":[2,4,6,8,10,12,14,-1,-1,-1,-1,-1,-1,-1,-1],"split_conditions":[1E0,6E-1,1.27E2,2.35E2,1E0,1E0,5.8E1,1.7130253E-3,-1.7215285E-3,-3.2189302E-3,1.5818751E-3,1.5950472E-3,-3.6390861E-3,3.0858223E-3,5.6567887E-4],"split_indices":[16,7,5,3,12,1,0,0,0,0,0,0,0,0,0],"split_type":[0,0,0,0,0,0,0,0,0,0,0,0,0,0,0],"sum_hessian":[2.27E2,1.07E2,1.2E2,3E1,7.7E1,1.8E1,1.02E2,1.6E1,1.4E1,7E1,7E0,8E0,1E1,7E1,3.2E1],"tree_param":{"num_deleted":"0","num_feature":"18","num_nodes":"15","size_leaf_vector":"1"}},{"base_weights":[-2.1914039E-4,-1.948899E-1,1.735384E-1,-4.2176627E-2,-3.0330136E-1,2.1553563E-1,-2.2589777E-1,-3.5705622E-3,1.067412E-3,2.310376E-3,-3.1564613E-3,2.6385875E-3,-1.5111444E-4,2.5837156E-3,-3.4858878E-3],"categories":[],"categories_nodes":[],"categories_segments":[],"categories_sizes":[],"default_left":[0,0,0,0,0,0,0,0,0,0,0,0,0,0,0],"id":33,"left_children":[1,3,5,7,9,11,13,-1,-1,-1,-1,-1,-1,-1,-1],"loss_changes":[7.746038E0,1.7752419E0,2.0784898E0,2.1951072E0,4.8849297E-1,1.2300019E0,8.030514E-1,0E0,0E0,0E0,0E0,0E0,0E0,0E0,0E0],"parents":[2147483647,0,0,1,1,2,2,3,3,4,4,5,5,6,6],"right_children":[2,4,6,8,10,12,14,-1,-1,-1,-1,-1,-1,-1,-1],"split_conditions":[1E0,1E0,2.1E0,5.2E1,1.31E2,1E0,4.6E1,-3.5705622E-3,1.067412E-3,2.310376E-3,-3.1564613E-3,2.6385875E-3,-1.5111444E-4,2.5837156E-3,-3.4858878E-3],"split_indices":[16,9,7,0,3,6,0,0,0,0,0,0,0,0,0],"split_type":[0,0,0,0,0,0,0,0,0,0,0,0,0,0,0],"sum_hessian":[2.27E2,1.07E2,1.2E2,4.5E1,6.2E1,1.09E2,1.1E1,1.4E1,3.1E1,1E0,6.1E1,9E1,1.9E1,2E0,9E0],"tree_param":{"num_deleted":"0","num_feature":"18","num_nodes":"15","size_leaf_vector":"1"}},{"base_weights":[-2.2468375E-4,-1.9297202E-1,1.7181613E-1,-7.509816E-2,-3.3336917E-1,-1.344797E-1,2.2664917E-1,1.1190464E-3,-2.4222261E-3,-1.4080756E-3,-3.6211018E-3,1.5642202E-3,-3.6026477E-3,3.0337987E-3,5.469376E-4],"categories":[],"categories_nodes":[],"categories_segments":[],"categories_sizes":[],"default_left":[0,0,0,0,0,0,0,0,0,0,0,0,0,0,0],"id":34,"left_children":[1,3,5,7,9,11,13,-1,-1,-1,-1,-1,-1,-1,-1],"loss_changes":[7.593728E0,1.7622728E0,2.0626915E0,1.9022702E0,2.2019958E-1,1.3042973E0,1.3424153E0,0E0,0E0,0E0,0E0,0E0,0E0,0E0,0E0],"parents":[2147483647,0,0,1,1,2,2,3,3,4,4,5,5,6,6],"right_children":[2,4,6,8,10,12,14,-1,-1,-1,-1,-1,-1,-1,-1],"split_conditions":[1E0,1E0,1.27E2,1E0,3E-1,1E0,5.8E1,1.1190464E-3,-2.4222261E-3,-1.4080756E-3,-3.6211018E-3,1.5642202E-3,-3.6026477E-3,3.0337987E-3,5.469376E-4],"split_indices":[16,6,5,9,7,1,0,0,0,0,0,0,0,0,0],"split_type":[0,0,0,0,0,0,0,0,0,0,0,0,0,0,0],"sum_hessian":[2.27E2,1.07E2,1.2E2,5.9E1,4.8E1,1.8E1,1.02E2,2.8E1,3.1E1,7E0,4.1E1,8E0,1E1,7E1,3.2E1],"tree_param":{"num_deleted":"0","num_feature":"18","num_nodes":"15","size_leaf_vector":"1"}},{"base_weights":[-2.4344982E-4,-1.9110093E-1,1.701107E-1,-7.4368894E-2,-3.3013812E-1,2.561565E-1,-2.4572397E-2,1.108242E-3,-2.398761E-3,-1.3957547E-3,-3.585753E-3,3.2368489E-3,5.113618E-4,-1.6230316E-3,3.2824888E-3],"categories":[],"categories_nodes":[],"categories_segments":[],"categories_sizes":[],"default_left":[0,0,0,0,0,0,0,0,0,0,0,0,0,0,0],"id":35,"left_children":[1,3,5,7,9,11,13,-1,-1,-1,-1,-1,-1,-1,-1],"loss_changes":[7.4455557E0,1.7282982E0,2.0332453E0,1.8656318E0,2.1548557E-1,1.1464024E0,1.8998611E0,0E0,0E0,0E0,0E0,0E0,0E0,0E0,0E0],"parents":[2147483647,0,0,1,1,2,2,3,3,4,4,5,5,6,6],"right_children":[2,4,6,8,10,12,14,-1,-1,-1,-1,-1,-1,-1,-1],"split_conditions":[1E0,1E0,1E0,1E0,3E-1,5.9E1,1E0,1.108242E-3,-2.398761E-3,-1.3957547E-3,-3.585753E-3,3.2368489E-3,5.113618E-4,-1.6230316E-3,3.2824888E-3],"split_indices":[16,6,9,9,7,0,11,0,0,0,0,0,0,0,0],"split_type":[0,0,0,0,0,0,0,0,0,0,0,0,0,0,0],"sum_hessian":[2.27E2,1.07E2,1.2E2,5.9E1,4.8E1,8.3E1,3.7E1,2.8E1,3.1E1,7E0,4.1E1,6.2E1,2.1E1,2.7E1,1E1],"tree_param":{"num_deleted":"0","num_feature":"18","num_nodes":"15","size_leaf_vector":"1"}},{"base_weights":[-2.4479796E-4,-1.89248E-1,1.6845429E-1,1.270761E-2,-2.6708615E-1,2.0971958E-1,-2.2384867E-1,1.7163219E-3,-1.682541E-3,-3.1102526E-3,1.5625933E-3,2.7502957E-3,4.1931763E-4,2.524686E-3,-3.4435901E-3],"categories":[],"categories_nodes":[],"categories_segments":[],"categories_sizes":[],"default_left":[0,0,0,0,0,0,0,0,0,0,0,0,0,0,0],"id":36,"left_children":[1,3,5,7,9,11,13,-1,-1,-1,-1,-1,-1,-1,-1],"loss_changes":[7.301584E0,1.7011378E0,2.0057535E0,9.2041516E-1,1.4995117E0,1.193872E0,7.757537E-1,0E0,0E0,0E0,0E0,0E0,0E0,0E0,0E0],"parents":[2147483647,0,0,1,1,2,2,3,3,4,4,5,5,6,6],"right_children":[2,4,6,8,10,12,14,-1,-1,-1,-1,-1,-1,-1,-1],"split_conditions":[1E0,6E-1,2.1E0,2.35E2,1E0,1E0,4.6E1,1.7163219E-3,-1.682541E-3,-3.1102526E-3,1.5625933E-3,2.7502957E-3,4.1931763E-4,2.524686E-3,-3.4435901E-3],"split_indices":[16,7,7,3,12,9,0,0,0,0,0,0,0,0,0],"split_type":[0,0,0,0,0,0,0,0,0,0,0,0,0,0,0],"sum_hessian":[2.27E2,1.07E2,1.2E2,3E1,7.7E1,1.09E2,1.1E1,1.6E1,1.4E1,7E1,7E0,7.8E1,3.1E1,2E0,9E0],"tree_param":{"num_deleted":"0","num_feature":"18","num_nodes":"15","size_leaf_vector":"1"}},{"base_weights":[-2.3910978E-4,-1.8736953E-1,1.6678837E-1,-7.2395936E-2,-3.2432964E-1,-1.3390972E-1,2.2063763E-1,1.1016353E-3,-2.3557807E-3,-1.3773168E-3,-3.5215E-3,1.529044E-3,-3.564022E-3,2.9558295E-3,5.270567E-4],"categories":[],"categories_nodes":[],"categories_segments":[],"categories_sizes":[],"default_left":[0,0,0,0,0,0,0,0,0,0,0,0,0,0,0],"id":37,"left_children":[1,3,5,7,9,11,13,-1,-1,-1,-1,-1,-1,-1,-1],"loss_changes":[7.157601E0,1.6771741E0,1.9888229E0,1.8133788E0,2.0586729E-1,1.2669611E0,1.2807498E0,0E0,0E0,0E0,0E0,0E0,0E0,0E0,0E0],"parents":[2147483647,0,0,1,1,2,2,3,3,4,4,5,5,6,6],"right_children":[2,4,6,8,10,12,14,-1,-1,-1,-1,-1,-1,-1,-1],"split_conditions":[1E0,1E0,1.27E2,1E0,3E-1,1E0,5.8E1,1.1016353E-3,-2.3557807E-3,-1.3773168E-3,-3.5215E-3,1.529044E-3,-3.564022E-3,2.9558295E-3,5.270567E-4],"split_indices":[16,6,5,9,7,1,0,0,0,0,0,0,0,0,0],"split_type":[0,0,0,0,0,0,0,0,0,0,0,0,0,0,0],"sum_hessian":[2.27E2,1.07E2,1.2E2,5.9E1,4.8E1,1.8E1,1.02E2,2.8E1,3.1E1,7E0,4.1E1,8E0,1E1,7E1,3.2E1],"tree_param":{"num_deleted":"0","num_feature":"18","num_nodes":"15","size_leaf_vector":"1"}},{"base_weights":[-2.5736398E-4,-1.855528E-1,1.6513242E-1,1.3079064E-2,-2.6211736E-1,-1.3267773E-1,2.1846505E-1,1.9168851E-3,-1.4528687E-3,-3.0536905E-3,1.5450604E-3,1.5154525E-3,-3.531622E-3,2.9266872E-3,5.219456E-4],"categories":[],"categories_nodes":[],"categories_segments":[],"categories_sizes":[],"default_left":[0,0,0,0,0,0,0,0,0,0,0,0,0,0,0],"id":38,"left_children":[1,3,5,7,9,11,13,-1,-1,-1,-1,-1,-1,-1,-1],"loss_changes":[7.0179224E0,1.6459093E0,1.9508278E0,9.0470517E-1,1.4527154E0,1.2441883E0,1.2555261E0,0E0,0E0,0E0,0E0,0E0,0E0,0E0,0E0],"parents":[2147483647,0,0,1,1,2,2,3,3,4,4,5,5,6,6],"right_children":[2,4,6,8,10,12,14,-1,-1,-1,-1,-1,-1,-1,-1],"split_conditions":[1E0,6E-1,1.27E2,2.34E2,1E0,1E0,5.8E1,1.9168851E-3,-1.4528687E-3,-3.0536905E-3,1.5450604E-3,1.5154525E-3,-3.531622E-3,2.9266872E-3,5.219456E-4],"split_indices":[16,7,5,3,12,1,0,0,0,0,0,0,0,0,0],"split_type":[0,0,0,0,0,0,0,0,0,0,0,0,0,0,0],"sum_hessian":[2.27E2,1.07E2,1.2E2,3E1,7.7E1,1.8E1,1.02E2,1.4E1,1.6E1,7E1,7E0,8E0,1E1,7E1,3.2E1],"tree_param":{"num_deleted":"0","num_feature":"18","num_nodes":"15","size_leaf_vector":"1"}},{"base_weights":[-2.530957E-4,-1.8370694E-1,1.6349292E-1,-7.043755E-2,-3.1865504E-1,2.0398492E-1,-2.2130813E-1,1.0951061E-3,-2.313144E-3,-1.3609771E-3,-3.4584084E-3,2.5124808E-3,-2.1261696E-4,2.468638E-3,-3.396289E-3],"categories":[],"categories_nodes":[],"categories_segments":[],"categories_sizes":[],"default_left":[0,0,0,0,0,0,0,0,0,0,0,0,0,0,0],"id":39,"left_children":[1,3,5,7,9,11,13,-1,-1,-1,-1,-1,-1,-1,-1],"loss_changes":[6.8791175E0,1.6283877E0,1.9304883E0,1.7623011E0,1.9611692E-1,1.1763878E0,7.485756E-1,0E0,0E0,0E0,0E0,0E0,0E0,0E0,0E0],"parents":[2147483647,0,0,1,1,2,2,3,3,4,4,5,5,6,6],"right_children":[2,4,6,8,10,12,14,-1,-1,-1,-1,-1,-1,-1,-1],"split_conditions":[1E0,1E0,2.1E0,1E0,3E-1,1E0,4.6E1,1.0951061E-3,-2.313144E-3,-1.3609771E-3,-3.4584084E-3,2.5124808E-3,-2.1261696E-4,2.468638E-3,-3.396289E-3],"split_indices":[16,6,7,9,7,6,0,0,0,0,0,0,0,0,0],"split_type":[0,0,0,0,0,0,0,0,0,0,0,0,0,0,0],"sum_hessian":[2.27E2,1.07E2,1.2E2,5.9E1,4.8E1,1.09E2,1.1E1,2.8E1,3.1E1,7E0,4.1E1,9E1,1.9E1,2E0,9E0],"tree_param":{"num_deleted":"0","num_feature":"18","num_nodes":"15","size_leaf_vector":"1"}},{"base_weights":[-2.7101787E-4,-1.8192577E-1,1.6186936E-1,-6.975348E-2,-3.1556684E-1,2.4518932E-1,-2.657134E-2,1.0845326E-3,-2.2907355E-3,-1.3490686E-3,-3.4246477E-3,3.107212E-3,4.638484E-4,-1.616771E-3,3.1974982E-3],"categories":[],"categories_nodes":[],"categories_segments":[],"categories_sizes":[],"default_left":[0,0,0,0,0,0,0,0,0,0,0,0,0,0,0],"id":40,"left_children":[1,3,5,7,9,11,13,-1,-1,-1,-1,-1,-1,-1,-1],"loss_changes":[6.7448626E0,1.5969973E0,1.9063201E0,1.7283584E0,1.9190884E-1,1.0799422E0,1.8297158E0,0E0,0E0,0E0,0E0,0E0,0E0,0E0,0E0],"parents":[2147483647,0,0,1,1,2,2,3,3,4,4,5,5,6,6],"right_children":[2,4,6,8,10,12,14,-1,-1,-1,-1,-1,-1,-1,-1],"split_conditions":[1E0,1E0,1E0,1E0,3E-1,5.9E1,1E0,1.0845326E-3,-2.2907355E-3,-1.3490686E-3,-3.4246477E-3,3.107212E-3,4.638484E-4,-1.616771E-3,3.1974982E-3],"split_indices":[16,6,9,9,7,0,11,0,0,0,0,0,0,0,0],"split_type":[0,0,0,0,0,0,0,0,0,0,0,0,0,0,0],"sum_hessian":[2.27E2,1.07E2,1.2E2,5.9E1,4.8E1,8.3E1,3.7E1,2.8E1,3.1E1,7E0,4.1E1,6.2E1,2.1E1,2.7E1,1E1],"tree_param":{"num_deleted":"0","num_feature":"18","num_nodes":"15","size_leaf_vector":"1"}},{"base_weights":[-2.7193208E-4,-1.801619E-1,1.6029325E-1,1.3927442E-2,-2.549902E-1,-1.3225925E-1,2.12703E-1,1.7000225E-3,-1.6388585E-3,-2.972996E-3,1.5237976E-3,1.4779037E-3,-3.4936715E-3,2.8519728E-3,5.028492E-4],"categories":[],"categories_nodes":[],"categories_segments":[],"categories_sizes":[],"default_left":[0,0,0,0,0,0,0,0,0,0,0,0,0,0,0],"id":41,"left_children":[1,3,5,7,9,11,13,-1,-1,-1,-1,-1,-1,-1,-1],"loss_changes":[6.6144457E0,1.5720761E0,1.8833768E0,8.8817847E-1,1.389678E0,1.206852E0,1.1984196E0,0E0,0E0,0E0,0E0,0E0,0E0,0E0,0E0],"parents":[2147483647,0,0,1,1,2,2,3,3,4,4,5,5,6,6],"right_children":[2,4,6,8,10,12,14,-1,-1,-1,-1,-1,-1,-1,-1],"split_conditions":[1E0,6E-1,1.27E2,2.35E2,1E0,1E0,5.8E1,1.7000225E-3,-1.6388585E-3,-2.972996E-3,1.5237976E-3,1.4779037E-3,-3.4936715E-3,2.8519728E-3,5.028492E-4],"split_indices":[16,7,5,3,12,1,0,0,0,0,0,0,0,0,0],"split_type":[0,0,0,0,0,0,0,0,0,0,0,0,0,0,0],"sum_hessian":[2.27E2,1.07E2,1.2E2,3E1,7.7E1,1.8E1,1.02E2,1.6E1,1.4E1,7E1,7E0,8E0,1E1,7E1,3.2E1],"tree_param":{"num_deleted":"0","num_feature":"18","num_nodes":"15","size_leaf_vector":"1"}},{"base_weights":[-2.6942344E-4,-1.7837313E-1,1.5870139E-1,-3.569844E-2,-2.7971697E-1,1.9848816E-1,-2.1923566E-1,-3.451452E-3,1.104703E-3,2.3310608E-3,-2.9174807E-3,2.4497171E-3,-2.2936499E-4,2.4124526E-3,-3.3545636E-3],"categories":[],"categories_nodes":[],"categories_segments":[],"categories_sizes":[],"default_left":[0,0,0,0,0,0,0,0,0,0,0,0,0,0,0],"id":42,"left_children":[1,3,5,7,9,11,13,-1,-1,-1,-1,-1,-1,-1,-1],"loss_changes":[6.4837384E0,1.5516086E0,1.8629794E0,2.1187747E0,4.5670748E-1,1.1378059E0,7.231363E-1,0E0,0E0,0E0,0E0,0E0,0E0,0E0,0E0],"parents":[2147483647,0,0,1,1,2,2,3,3,4,4,5,5,6,6],"right_children":[2,4,6,8,10,12,14,-1,-1,-1,-1,-1,-1,-1,-1],"split_conditions":[1E0,1E0,2.1E0,5.2E1,1.31E2,1E0,4.6E1,-3.451452E-3,1.104703E-3,2.3310608E-3,-2.9174807E-3,2.4497171E-3,-2.2936499E-4,2.4124526E-3,-3.3545636E-3],"split_indices":[16,9,7,0,3,6,0,0,0,0,0,0,0,0,0],"split_type":[0,0,0,0,0,0,0,0,0,0,0,0,0,0,0],"sum_hessian":[2.27E2,1.07E2,1.2E2,4.5E1,6.2E1,1.09E2,1.1E1,1.4E1,3.1E1,1E0,6.1E1,9E1,1.9E1,2E0,9E0],"tree_param":{"num_deleted":"0","num_feature":"18","num_nodes":"15","size_leaf_vector":"1"}},{"base_weights":[-2.7398294E-4,-1.7661656E-1,1.5712497E-1,-6.638093E-2,-3.0799454E-1,2.3899238E-1,-2.7979974E-2,1.0797137E-3,-2.223133E-3,-1.3157991E-3,-3.3426413E-3,3.031697E-3,4.43486E-4,-1.6103174E-3,3.1324087E-3],"categories":[],"categories_nodes":[],"categories_segments":[],"categories_sizes":[],"default_left":[0,0,0,0,0,0,0,0,0,0,0,0,0,0,0],"id":43,"left_children":[1,3,5,7,9,11,13,-1,-1,-1,-1,-1,-1,-1,-1],"loss_changes":[6.3561497E0,1.5436687E0,1.8403289E0,1.6552336E0,1.8310022E-1,1.0358586E0,1.7756432E0,0E0,0E0,0E0,0E0,0E0,0E0,0E0,0E0],"parents":[2147483647,0,0,1,1,2,2,3,3,4,4,5,5,6,6],"right_children":[2,4,6,8,10,12,14,-1,-1,-1,-1,-1,-1,-1,-1],"split_conditions":[1E0,1E0,1E0,1E0,3E-1,5.9E1,1E0,1.0797137E-3,-2.223133E-3,-1.3157991E-3,-3.3426413E-3,3.031697E-3,4.43486E-4,-1.6103174E-3,3.1324087E-3],"split_indices":[16,6,9,9,7,0,11,0,0,0,0,0,0,0,0],"split_type":[0,0,0,0,0,0,0,0,0,0,0,0,0,0,0],"sum_hessian":[2.27E2,1.07E2,1.2E2,5.9E1,4.8E1,8.3E1,3.7E1,2.8E1,3.1E1,7E0,4.1E1,6.2E1,2.1E1,2.7E1,1E1],"tree_param":{"num_deleted":"0","num_feature":"18","num_nodes":"15","size_leaf_vector":"1"}},{"base_weights":[-2.7476499E-4,-1.7490412E-1,1.5559503E-1,-6.573619E-2,-3.050097E-1,-1.3179585E-1,2.0709826E-1,1.0692887E-3,-2.2015965E-3,-1.3042858E-3,-3.310011E-3,1.4414357E-3,-3.45583E-3,2.7791825E-3,4.8452258E-4],"categories":[],"categories_nodes":[],"categories_segments":[],"categories_sizes":[],"default_left":[0,0,0,0,0,0,0,0,0,0,0,0,0,0,0],"id":44,"left_children":[1,3,5,7,9,11,13,-1,-1,-1,-1,-1,-1,-1,-1],"loss_changes":[6.2332478E0,1.513912E0,1.8182831E0,1.6233536E0,1.7917109E-1,1.1706674E0,1.1437712E0,0E0,0E0,0E0,0E0,0E0,0E0,0E0,0E0],"parents":[2147483647,0,0,1,1,2,2,3,3,4,4,5,5,6,6],"right_children":[2,4,6,8,10,12,14,-1,-1,-1,-1,-1,-1,-1,-1],"split_conditions":[1E0,1E0,1.27E2,1E0,3E-1,1E0,5.8E1,1.0692887E-3,-2.2015965E-3,-1.3042858E-3,-3.310011E-3,1.4414357E-3,-3.45583E-3,2.7791825E-3,4.8452258E-4],"split_indices":[16,6,5,9,7,1,0,0,0,0,0,0,0,0,0],"split_type":[0,0,0,0,0,0,0,0,0,0,0,0,0,0,0],"sum_hessian":[2.27E2,1.07E2,1.2E2,5.9E1,4.8E1,1.8E1,1.02E2,2.8E1,3.1E1,7E0,4.1E1,8E0,1E1,7E1,3.2E1],"tree_param":{"num_deleted":"0","num_feature":"18","num_nodes":"15","size_leaf_vector":"1"}},{"base_weights":[-2.9174407E-4,-1.732083E-1,1.5404941E-1,1.5714834E-2,-2.4607252E-1,1.9314325E-1,-2.1714829E-1,1.908483E-3,-1.397391E-3,-2.87284E-3,1.5043867E-3,2.3886072E-3,-2.4528493E-4,2.3576308E-3,-3.3130688E-3],"categories":[],"categories_nodes":[],"categories_segments":[],"categories_sizes":[],"default_left":[0,0,0,0,0,0,0,0,0,0,0,0,0,0,0],"id":45,"left_children":[1,3,5,7,9,11,13,-1,-1,-1,-1,-1,-1,-1,-1],"loss_changes":[6.1115785E0,1.4905665E0,1.7978377E0,8.706497E-1,1.3178024E0,1.1005135E0,6.985546E-1,0E0,0E0,0E0,0E0,0E0,0E0,0E0,0E0],"parents":[2147483647,0,0,1,1,2,2,3,3,4,4,5,5,6,6],"right_children":[2,4,6,8,10,12,14,-1,-1,-1,-1,-1,-1,-1,-1],"split_conditions":[1E0,6E-1,2.1E0,2.34E2,1E0,1E0,4.6E1,1.908483E-3,-1.397391E-3,-2.87284E-3,1.5043867E-3,2.3886072E-3,-2.4528493E-4,2.3576308E-3,-3.3130688E-3],"split_indices":[16,7,7,3,12,6,0,0,0,0,0,0,0,0,0],"split_type":[0,0,0,0,0,0,0,0,0,0,0,0,0,0,0],"sum_hessian":[2.27E2,1.07E2,1.2E2,3E1,7.7E1,1.09E2,1.1E1,1.4E1,1.6E1,7E1,7E0,9E1,1.9E1,2E0,9E0],"tree_param":{"num_deleted":"0","num_feature":"18","num_nodes":"15","size_leaf_vector":"1"}},{"base_weights":[-2.8736773E-4,-1.7148414E-1,1.5251873E-1,-6.393723E-2,-2.9967457E-1,2.3295952E-1,-2.9311394E-2,1.0625432E-3,-2.161753E-3,-1.2889105E-3,-3.2506962E-3,2.9581054E-3,4.2387994E-4,-1.6034285E-3,3.0688788E-3],"categories":[],"categories_nodes":[],"categories_segments":[],"categories_sizes":[],"default_left":[0,0,0,0,0,0,0,0,0,0,0,0,0,0,0],"id":46,"left_children":[1,3,5,7,9,11,13,-1,-1,-1,-1,-1,-1,-1,-1],"loss_changes":[5.9906144E0,1.4697802E0,1.7766423E0,1.5775476E0,1.706171E-1,9.935808E-1,1.7232093E0,0E0,0E0,0E0,0E0,0E0,0E0,0E0,0E0],"parents":[2147483647,0,0,1,1,2,2,3,3,4,4,5,5,6,6],"right_children":[2,4,6,8,10,12,14,-1,-1,-1,-1,-1,-1,-1,-1],"split_conditions":[1E0,1E0,1E0,1E0,3E-1,5.9E1,1E0,1.0625432E-3,-2.161753E-3,-1.2889105E-3,-3.2506962E-3,2.9581054E-3,4.2387994E-4,-1.6034285E-3,3.0688788E-3],"split_indices":[16,6,9,9,7,0,11,0,0,0,0,0,0,0,0],"split_type":[0,0,0,0,0,0,0,0,0,0,0,0,0,0,0],"sum_hessian":[2.27E2,1.07E2,1.2E2,5.9E1,4.8E1,8.3E1,3.7E1,2.8E1,3.1E1,7E0,4.1E1,6.2E1,2.1E1,2.7E1,1E1],"tree_param":{"num_deleted":"0","num_feature":"18","num_nodes":"15","size_leaf_vector":"1"}},{"base_weights":[-2.879767E-4,-1.6982152E-1,1.510336E-1,1.6012957E-2,-2.4150161E-1,-1.3128981E-1,2.0164633E-1,1.6911186E-3,-1.5856666E-3,-2.8207013E-3,1.4873175E-3,1.4060158E-3,-3.4181096E-3,2.7082646E-3,4.6693723E-4],"categories":[],"categories_nodes":[],"categories_segments":[],"categories_sizes":[],"default_left":[0,0,0,0,0,0,0,0,0,0,0,0,0,0,0],"id":47,"left_children":[1,3,5,7,9,11,13,-1,-1,-1,-1,-1,-1,-1,-1],"loss_changes":[5.8747797E0,1.4424953E0,1.7554622E0,8.553819E-1,1.2767859E0,1.1355982E0,1.0914769E0,0E0,0E0,0E0,0E0,0E0,0E0,0E0,0E0],"parents":[2147483647,0,0,1,1,2,2,3,3,4,4,5,5,6,6],"right_children":[2,4,6,8,10,12,14,-1,-1,-1,-1,-1,-1,-1,-1],"split_conditions":[1E0,6E-1,1.27E2,2.35E2,1E0,1E0,5.8E1,1.6911186E-3,-1.5856666E-3,-2.8207013E-3,1.4873175E-3,1.4060158E-3,-3.4181096E-3,2.7082646E-3,4.6693723E-4],"split_indices":[16,7,5,3,12,1,0,0,0,0,0,0,0,0,0],"split_type":[0,0,0,0,0,0,0,0,0,0,0,0,0,0,0],"sum_hessian":[2.27E2,1.07E2,1.2E2,3E1,7.7E1,1.8E1,1.02E2,1.6E1,1.4E1,7E1,7E0,8E0,1E1,7E1,3.2E1],"tree_param":{"num_deleted":"0","num_feature":"18","num_nodes":"15","size_leaf_vector":"1"}},{"base_weights":[-2.853801E-4,-1.6813467E-1,1.4953288E-1,-6.221132E-2,-2.9440543E-1,1.8794592E-1,-2.1504767E-1,1.0556037E-3,-2.123103E-3,-1.27195E-3,-3.1924536E-3,2.3291057E-3,-2.604065E-4,2.3041375E-3,-3.2718133E-3],"categories":[],"categories_nodes":[],"categories_segments":[],"categories_sizes":[],"default_left":[0,0,0,0,0,0,0,0,0,0,0,0,0,0,0],"id":48,"left_children":[1,3,5,7,9,11,13,-1,-1,-1,-1,-1,-1,-1,-1],"loss_changes":[5.758632E0,1.426187E0,1.7349794E0,1.5333531E0,1.6291475E-1,1.0644672E0,6.7480177E-1,0E0,0E0,0E0,0E0,0E0,0E0,0E0,0E0],"parents":[2147483647,0,0,1,1,2,2,3,3,4,4,5,5,6,6],"right_children":[2,4,6,8,10,12,14,-1,-1,-1,-1,-1,-1,-1,-1],"split_conditions":[1E0,1E0,2.1E0,1E0,3E-1,1E0,4.6E1,1.0556037E-3,-2.123103E-3,-1.27195E-3,-3.1924536E-3,2.3291057E-3,-2.604065E-4,2.3041375E-3,-3.2718133E-3],"split_indices":[16,6,7,9,7,6,0,0,0,0,0,0,0,0,0],"split_type":[0,0,0,0,0,0,0,0,0,0,0,0,0,0,0],"sum_hessian":[2.27E2,1.07E2,1.2E2,5.9E1,4.8E1,1.09E2,1.1E1,2.8E1,3.1E1,7E0,4.1E1,9E1,1.9E1,2E0,9E0],"tree_param":{"num_deleted":"0","num_feature":"18","num_nodes":"15","size_leaf_vector":"1"}},{"base_weights":[-3.0195803E-4,-1.6650455E-1,1.4804664E-1,-6.160699E-2,-2.9155248E-1,2.2708626E-1,-3.0568464E-2,1.0454117E-3,-2.1025352E-3,-1.2608203E-3,-3.1612893E-3,2.886387E-3,4.0500346E-4,-1.5961273E-3,3.006868E-3],"categories":[],"categories_nodes":[],"categories_segments":[],"categories_sizes":[],"default_left":[0,0,0,0,0,0,0,0,0,0,0,0,0,0,0],"id":49,"left_children":[1,3,5,7,9,11,13,-1,-1,-1,-1,-1,-1,-1,-1],"loss_changes":[5.6462E0,1.3986983E0,1.7151797E0,1.5038211E0,1.5940905E-1,9.530349E-1,1.672364E0,0E0,0E0,0E0,0E0,0E0,0E0,0E0,0E0],"parents":[2147483647,0,0,1,1,2,2,3,3,4,4,5,5,6,6],"right_children":[2,4,6,8,10,12,14,-1,-1,-1,-1,-1,-1,-1,-1],"split_conditions":[1E0,1E0,1E0,1E0,3E-1,5.9E1,1E0,1.0454117E-3,-2.1025352E-3,-1.2608203E-3,-3.1612893E-3,2.886387E-3,4.0500346E-4,-1.5961273E-3,3.006868E-3],"split_indices":[16,6,9,9,7,0,11,0,0,0,0,0,0,0,0],"split_type":[0,0,0,0,0,0,0,0,0,0,0,0,0,0,0],"sum_hessian":[2.27E2,1.07E2,1.2E2,5.9E1,4.8E1,8.3E1,3.7E1,2.8E1,3.1E1,7E0,4.1E1,6.2E1,2.1E1,2.7E1,1E1],"tree_param":{"num_deleted":"0","num_feature":"18","num_nodes":"15","size_leaf_vector":"1"}},{"base_weights":[-3.0235515E-4,-1.6489023E-1,1.4660503E-1,1.6706105E-2,-2.3494917E-1,-1.3074328E-1,1.9634302E-1,1.8865104E-3,-1.3599271E-3,-2.7463697E-3,1.4664882E-3,1.3716137E-3,-3.3805224E-3,2.6391703E-3,4.5006728E-4],"categories":[],"categories_nodes":[],"categories_segments":[],"categories_sizes":[],"default_left":[0,0,0,0,0,0,0,0,0,0,0,0,0,0,0],"id":50,"left_children":[1,3,5,7,9,11,13,-1,-1,-1,-1,-1,-1,-1,-1],"loss_changes":[5.5370255E0,1.3779495E0,1.694835E0,8.3958465E-1,1.2215686E0,1.1016095E0,1.0414407E0,0E0,0E0,0E0,0E0,0E0,0E0,0E0,0E0],"parents":[2147483647,0,0,1,1,2,2,3,3,4,4,5,5,6,6],"right_children":[2,4,6,8,10,12,14,-1,-1,-1,-1,-1,-1,-1,-1],"split_conditions":[1E0,6E-1,1.27E2,2.34E2,1E0,1E0,5.8E1,1.8865104E-3,-1.3599271E-3,-2.7463697E-3,1.4664882E-3,1.3716137E-3,-3.3805224E-3,2.6391703E-3,4.5006728E-4],"split_indices":[16,7,5,3,12,1,0,0,0,0,0,0,0,0,0],"split_type":[0,0,0,0,0,0,0,0,0,0,0,0,0,0,0],"sum_hessian":[2.27E2,1.07E2,1.2E2,3E1,7.7E1,1.8E1,1.02E2,1.4E1,1.6E1,7E1,7E0,8E0,1E1,7E1,3.2E1],"tree_param":{"num_deleted":"0","num_feature":"18","num_nodes":"15","size_leaf_vector":"1"}},{"base_weights":[-2.97898E-4,-1.632483E-1,1.451479E-1,-5.990998E-2,-2.8645343E-1,1.8289201E-1,-2.1293542E-1,1.0385892E-3,-2.0645335E-3,-1.2460048E-3,-3.1046222E-3,2.4355897E-3,2.7405086E-4,2.2519394E-3,-3.230807E-3],"categories":[],"categories_nodes":[],"categories_segments":[],"categories_sizes":[],"default_left":[0,0,0,0,0,0,0,0,0,0,0,0,0,0,0],"id":51,"left_children":[1,3,5,7,9,11,13,-1,-1,-1,-1,-1,-1,-1,-1],"loss_changes":[5.4273987E0,1.3578744E0,1.6743238E0,1.4613969E0,1.5172529E-1,1.0309465E0,6.5185034E-1,0E0,0E0,0E0,0E0,0E0,0E0,0E0,0E0],"parents":[2147483647,0,0,1,1,2,2,3,3,4,4,5,5,6,6],"right_children":[2,4,6,8,10,12,14,-1,-1,-1,-1,-1,-1,-1,-1],"split_conditions":[1E0,1E0,2.1E0,1E0,3E-1,1E0,4.6E1,1.0385892E-3,-2.0645335E-3,-1.2460048E-3,-3.1046222E-3,2.4355897E-3,2.7405086E-4,2.2519394E-3,-3.230807E-3],"split_indices":[16,6,7,9,7,9,0,0,0,0,0,0,0,0,0],"split_type":[0,0,0,0,0,0,0,0,0,0,0,0,0,0,0],"sum_hessian":[2.27E2,1.07E2,1.2E2,5.9E1,4.8E1,1.09E2,1.1E1,2.8E1,3.1E1,7E0,4.1E1,7.8E1,3.1E1,2E0,9E0],"tree_param":{"num_deleted":"0","num_feature":"18","num_nodes":"15","size_leaf_vector":"1"}},{"base_weights":[-3.1090464E-4,-1.6166562E-1,1.4371075E-1,1.6967725E-2,-2.3058827E-1,-1.2978898E-1,1.927669E-1,1.6731378E-3,-1.5455565E-3,-2.6965751E-3,1.4497474E-3,1.3488713E-3,-3.3454315E-3,2.5942496E-3,4.3509662E-4],"categories":[],"categories_nodes":[],"categories_segments":[],"categories_sizes":[],"default_left":[0,0,0,0,0,0,0,0,0,0,0,0,0,0,0],"id":52,"left_children":[1,3,5,7,9,11,13,-1,-1,-1,-1,-1,-1,-1,-1],"loss_changes":[5.3216276E0,1.3335958E0,1.6484573E0,8.25283E-1,1.1835847E0,1.0748029E0,1.0134797E0,0E0,0E0,0E0,0E0,0E0,0E0,0E0,0E0],"parents":[2147483647,0,0,1,1,2,2,3,3,4,4,5,5,6,6],"right_children":[2,4,6,8,10,12,14,-1,-1,-1,-1,-1,-1,-1,-1],"split_conditions":[1E0,6E-1,1.27E2,2.35E2,1E0,1E0,5.8E1,1.6731378E-3,-1.5455565E-3,-2.6965751E-3,1.4497474E-3,1.3488713E-3,-3.3454315E-3,2.5942496E-3,4.3509662E-4],"split_indices":[16,7,5,3,12,1,0,0,0,0,0,0,0,0,0],"split_type":[0,0,0,0,0,0,0,0,0,0,0,0,0,0,0],"sum_hessian":[2.27E2,1.07E2,1.2E2,3E1,7.7E1,1.8E1,1.02E2,1.6E1,1.4E1,7E1,7E0,8E0,1E1,7E1,3.2E1],"tree_param":{"num_deleted":"0","num_feature":"18","num_nodes":"15","size_leaf_vector":"1"}},{"base_weights":[-3.08173E-4,-1.6005932E-1,1.4228217E-1,-2.8545659E-2,-2.5354454E-1,1.7948955E-1,-2.1064222E-1,-3.3223426E-3,1.1470042E-3,2.3479925E-3,-2.6520814E-3,2.2359132E-3,-3.014801E-4,2.2196316E-3,-3.1935961E-3],"categories":[],"categories_nodes":[],"categories_segments":[],"categories_sizes":[],"default_left":[0,0,0,0,0,0,0,0,0,0,0,0,0,0,0],"id":53,"left_children":[1,3,5,7,9,11,13,-1,-1,-1,-1,-1,-1,-1,-1],"loss_changes":[5.2163796E0,1.3205776E0,1.6267059E0,2.0392087E0,4.211092E-1,1.0237336E0,6.3526684E-1,0E0,0E0,0E0,0E0,0E0,0E0,0E0,0E0],"parents":[2147483647,0,0,1,1,2,2,3,3,4,4,5,5,6,6],"right_children":[2,4,6,8,10,12,14,-1,-1,-1,-1,-1,-1,-1,-1],"split_conditions":[1E0,1E0,2.1E0,5.2E1,1.31E2,1E0,4.6E1,-3.3223426E-3,1.1470042E-3,2.3479925E-3,-2.6520814E-3,2.2359132E-3,-3.014801E-4,2.2196316E-3,-3.1935961E-3],"split_indices":[16,9,7,0,3,6,0,0,0,0,0,0,0,0,0],"split_type":[0,0,0,0,0,0,0,0,0,0,0,0,0,0,0],"sum_hessian":[2.27E2,1.07E2,1.2E2,4.5E1,6.2E1,1.09E2,1.1E1,1.4E1,3.1E1,1E0,6.1E1,9E1,1.9E1,2E0,9E0],"tree_param":{"num_deleted":"0","num_feature":"18","num_nodes":"15","size_leaf_vector":"1"}},{"base_weights":[-3.117481E-4,1.3146846E-1,-1.703051E-1,2.3382074E-1,-1.0211088E-1,4.3486025E-2,-2.7625424E-1,2.707831E-3,-5.939766E-5,-3.2913338E-3,3.2790992E-4,3.109687E-3,-8.092211E-4,-3.2194422E-3,-4.0013122E-4],"categories":[],"categories_nodes":[],"categories_segments":[],"categories_sizes":[],"default_left":[0,0,0,0,0,0,0,0,0,0,0,0,0,0,0],"id":54,"left_children":[1,3,5,7,9,11,13,-1,-1,-1,-1,-1,-1,-1,-1],"loss_changes":[5.129991E0,3.107927E0,2.2771118E0,7.991996E-1,1.2358232E0,1.156583E0,7.1030664E-1,0E0,0E0,0E0,0E0,0E0,0E0,0E0,0E0],"parents":[2147483647,0,0,1,1,2,2,3,3,4,4,5,5,6,6],"right_children":[2,4,6,8,10,12,14,-1,-1,-1,-1,-1,-1,-1,-1],"split_conditions":[1E0,1E0,6E-1,1.48E2,5.2E1,1E0,1E0,2.707831E-3,-5.939766E-5,-3.2913338E-3,3.2790992E-4,3.109687E-3,-8.092211E-4,-3.2194422E-3,-4.0013122E-4],"split_indices":[9,17,7,2,0,1,11,0,0,0,0,0,0,0,0],"split_type":[0,0,0,0,0,0,0,0,0,0,0,0,0,0,0],"sum_hessian":[2.27E2,1.28E2,9.9E1,8.9E1,3.9E1,3.3E1,6.6E1,7.7E1,1.2E1,1.4E1,2.5E1,1E1,2.3E1,5.5E1,1.1E1],"tree_param":{"num_deleted":"0","num_feature":"18","num_nodes":"15","size_leaf_vector":"1"}},{"base_weights":[-3.157968E-4,1.3015133E-1,-1.6861524E-1,2.3151195E-1,-1.0116385E-1,4.3118816E-2,-2.735457E-1,2.6811E-3,-5.8849153E-5,-3.2606148E-3,3.2475704E-4,3.081417E-3,-8.0146623E-4,-3.1878226E-3,-3.964633E-4],"categories":[],"categories_nodes":[],"categories_segments":[],"categories_sizes":[],"default_left":[0,0,0,0,0,0,0,0,0,0,0,0,0,0,0],"id":55,"left_children":[1,3,5,7,9,11,13,-1,-1,-1,-1,-1,-1,-1,-1],"loss_changes":[5.0282655E0,3.0479872E0,2.2335303E0,7.835212E-1,1.2127979E0,1.135414E0,6.9627476E-1,0E0,0E0,0E0,0E0,0E0,0E0,0E0,0E0],"parents":[2147483647,0,0,1,1,2,2,3,3,4,4,5,5,6,6],"right_children":[2,4,6,8,10,12,14,-1,-1,-1,-1,-1,-1,-1,-1],"split_conditions":[1E0,1E0,6E-1,1.48E2,5.2E1,1E0,1E0,2.6811E-3,-5.8849153E-5,-3.2606148E-3,3.2475704E-4,3.081417E-3,-8.0146623E-4,-3.1878226E-3,-3.964633E-4],"split_indices":[9,17,7,2,0,1,11,0,0,0,0,0,0,0,0],"split_type":[0,0,0,0,0,0,0,0,0,0,0,0,0,0,0],"sum_hessian":[2.27E2,1.28E2,9.9E1,8.9E1,3.9E1,3.3E1,6.6E1,7.7E1,1.2E1,1.4E1,2.5E1,1E1,2.3E1,5.5E1,1.1E1],"tree_param":{"num_deleted":"0","num_feature":"18","num_nodes":"15","size_leaf_vector":"1"}},{"base_weights":[-3.197286E-4,1.2884739E-1,-1.6694212E-1,2.29226E-1,-1.0022562E-1,4.2754676E-2,-2.7086374E-1,2.835258E-3,6.808798E-4,-3.2301825E-3,3.2163423E-4,3.0534037E-3,-7.937855E-4,-3.1565134E-3,-3.9282907E-4],"categories":[],"categories_nodes":[],"categories_segments":[],"categories_sizes":[],"default_left":[0,0,0,0,0,0,0,0,0,0,0,0,0,0,0],"id":56,"left_children":[1,3,5,7,9,11,13,-1,-1,-1,-1,-1,-1,-1,-1],"loss_changes":[4.928557E0,2.9892035E0,2.190784E0,7.681737E-1,1.1902015E0,1.1146325E0,6.825218E-1,0E0,0E0,0E0,0E0,0E0,0E0,0E0,0E0],"parents":[2147483647,0,0,1,1,2,2,3,3,4,4,5,5,6,6],"right_children":[2,4,6,8,10,12,14,-1,-1,-1,-1,-1,-1,-1,-1],"split_conditions":[1E0,1E0,6E-1,5.9E1,5.2E1,1E0,1E0,2.835258E-3,6.808798E-4,-3.2301825E-3,3.2163423E-4,3.0534037E-3,-7.937855E-4,-3.1565134E-3,-3.9282907E-4],"split_indices":[9,17,7,0,0,1,11,0,0,0,0,0,0,0,0],"split_type":[0,0,0,0,0,0,0,0,0,0,0,0,0,0,0],"sum_hessian":[2.27E2,1.28E2,9.9E1,8.9E1,3.9E1,3.3E1,6.6E1,6.6E1,2.3E1,1.4E1,2.5E1,1E1,2.3E1,5.5E1,1.1E1],"tree_param":{"num_deleted":"0","num_feature":"18","num_nodes":"15","size_leaf_vector":"1"}},{"base_weights":[-3.1952444E-4,1.2756363E-1,-1.652856E-1,2.2697279E-1,-9.929607E-2,4.2393588E-2,-2.682081E-1,2.6307867E-3,-7.121987E-5,-3.2000341E-3,3.1854166E-4,3.0256456E-3,-7.8617834E-4,-3.125512E-3,-3.8922805E-4],"categories":[],"categories_nodes":[],"categories_segments":[],"categories_sizes":[],"default_left":[0,0,0,0,0,0,0,0,0,0,0,0,0,0,0],"id":57,"left_children":[1,3,5,7,9,11,13,-1,-1,-1,-1,-1,-1,-1,-1],"loss_changes":[4.831059E0,2.931737E0,2.1488562E0,7.6257133E-1,1.1680263E0,1.0942314E0,6.690388E-1,0E0,0E0,0E0,0E0,0E0,0E0,0E0,0E0],"parents":[2147483647,0,0,1,1,2,2,3,3,4,4,5,5,6,6],"right_children":[2,4,6,8,10,12,14,-1,-1,-1,-1,-1,-1,-1,-1],"split_conditions":[1E0,1E0,6E-1,1.48E2,5.2E1,1E0,1E0,2.6307867E-3,-7.121987E-5,-3.2000341E-3,3.1854166E-4,3.0256456E-3,-7.8617834E-4,-3.125512E-3,-3.8922805E-4],"split_indices":[9,17,7,2,0,1,11,0,0,0,0,0,0,0,0],"split_type":[0,0,0,0,0,0,0,0,0,0,0,0,0,0,0],"sum_hessian":[2.27E2,1.28E2,9.9E1,8.9E1,3.9E1,3.3E1,6.6E1,7.7E1,1.2E1,1.4E1,2.5E1,1E1,2.3E1,5.5E1,1.1E1],"tree_param":{"num_deleted":"0","num_feature":"18","num_nodes":"15","size_leaf_vector":"1"}},{"base_weights":[-3.2332656E-4,1.2628551E-1,-1.6364549E-1,2.2473152E-1,-9.837514E-2,4.2035524E-2,-2.6557845E-1,2.7830263E-3,6.5814995E-4,-3.170167E-3,3.1547892E-4,2.9981395E-3,-7.7864405E-4,-3.094815E-3,-3.856602E-4],"categories":[],"categories_nodes":[],"categories_segments":[],"categories_sizes":[],"default_left":[0,0,0,0,0,0,0,0,0,0,0,0,0,0,0],"id":58,"left_children":[1,3,5,7,9,11,13,-1,-1,-1,-1,-1,-1,-1,-1],"loss_changes":[4.735257E0,2.8751934E0,2.1077313E0,7.478838E-1,1.1462643E0,1.0742037E0,6.5582275E-1,0E0,0E0,0E0,0E0,0E0,0E0,0E0,0E0],"parents":[2147483647,0,0,1,1,2,2,3,3,4,4,5,5,6,6],"right_children":[2,4,6,8,10,12,14,-1,-1,-1,-1,-1,-1,-1,-1],"split_conditions":[1E0,1E0,6E-1,5.9E1,5.2E1,1E0,1E0,2.7830263E-3,6.5814995E-4,-3.170167E-3,3.1547892E-4,2.9981395E-3,-7.7864405E-4,-3.094815E-3,-3.856602E-4],"split_indices":[9,17,7,0,0,1,11,0,0,0,0,0,0,0,0],"split_type":[0,0,0,0,0,0,0,0,0,0,0,0,0,0,0],"sum_hessian":[2.27E2,1.28E2,9.9E1,8.9E1,3.9E1,3.3E1,6.6E1,6.6E1,2.3E1,1.4E1,2.5E1,1E1,2.3E1,5.5E1,1.1E1],"tree_param":{"num_deleted":"0","num_feature":"18","num_nodes":"15","size_leaf_vector":"1"}},{"base_weights":[-3.230449E-4,1.2502721E-1,-1.6202164E-1,2.2252245E-1,-9.7462766E-2,4.1680448E-2,-2.6297462E-1,2.5814294E-3,-8.317569E-5,-3.1405787E-3,3.124454E-4,2.970884E-3,-7.711822E-4,-3.0644196E-3,-3.8212503E-4],"categories":[],"categories_nodes":[],"categories_segments":[],"categories_sizes":[],"default_left":[0,0,0,0,0,0,0,0,0,0,0,0,0,0,0],"id":59,"left_children":[1,3,5,7,9,11,13,-1,-1,-1,-1,-1,-1,-1,-1],"loss_changes":[4.64158E0,2.8199184E0,2.067394E0,7.4218416E-1,1.1249076E0,1.0545431E0,6.4286757E-1,0E0,0E0,0E0,0E0,0E0,0E0,0E0,0E0],"parents":[2147483647,0,0,1,1,2,2,3,3,4,4,5,5,6,6],"right_children":[2,4,6,8,10,12,14,-1,-1,-1,-1,-1,-1,-1,-1],"split_conditions":[1E0,1E0,6E-1,1.48E2,5.2E1,1E0,1E0,2.5814294E-3,-8.317569E-5,-3.1405787E-3,3.124454E-4,2.970884E-3,-7.711822E-4,-3.0644196E-3,-3.8212503E-4],"split_indices":[9,17,7,2,0,1,11,0,0,0,0,0,0,0,0],"split_type":[0,0,0,0,0,0,0,0,0,0,0,0,0,0,0],"sum_hessian":[2.27E2,1.28E2,9.9E1,8.9E1,3.9E1,3.3E1,6.6E1,7.7E1,1.2E1,1.4E1,2.5E1,1E1,2.3E1,5.5E1,1.1E1],"tree_param":{"num_deleted":"0","num_feature":"18","num_nodes":"15","size_leaf_vector":"1"}},{"base_weights":[-3.2672784E-4,1.2377439E-1,-1.6041389E-1,2.20325E-1,-9.655885E-2,4.132834E-2,-2.603963E-1,2.7317735E-3,6.3598587E-4,-3.111267E-3,3.0944106E-4,2.943876E-3,-7.637916E-4,-3.0343225E-3,-3.786222E-4],"categories":[],"categories_nodes":[],"categories_segments":[],"categories_sizes":[],"default_left":[0,0,0,0,0,0,0,0,0,0,0,0,0,0,0],"id":60,"left_children":[1,3,5,7,9,11,13,-1,-1,-1,-1,-1,-1,-1,-1],"loss_changes":[4.54953E0,2.765531E0,2.0278292E0,7.281289E-1,1.1039491E0,1.0352423E0,6.3016796E-1,0E0,0E0,0E0,0E0,0E0,0E0,0E0,0E0],"parents":[2147483647,0,0,1,1,2,2,3,3,4,4,5,5,6,6],"right_children":[2,4,6,8,10,12,14,-1,-1,-1,-1,-1,-1,-1,-1],"split_conditions":[1E0,1E0,6E-1,5.9E1,5.2E1,1E0,1E0,2.7317735E-3,6.3598587E-4,-3.111267E-3,3.0944106E-4,2.943876E-3,-7.637916E-4,-3.0343225E-3,-3.786222E-4],"split_indices":[9,17,7,0,0,1,11,0,0,0,0,0,0,0,0],"split_type":[0,0,0,0,0,0,0,0,0,0,0,0,0,0,0],"sum_hessian":[2.27E2,1.28E2,9.9E1,8.9E1,3.9E1,3.3E1,6.6E1,6.6E1,2.3E1,1.4E1,2.5E1,1E1,2.3E1,5.5E1,1.1E1],"tree_param":{"num_deleted":"0","num_feature":"18","num_nodes":"15","size_leaf_vector":"1"}},{"base_weights":[-3.2639503E-4,1.1511624E-1,-1.6914222E-1,2.1815914E-1,-8.464924E-2,-3.8391342E-3,-2.4029064E-1,2.5330088E-3,-9.4727344E-5,1.2988916E-3,-2.4837728E-3,1.5231329E-3,-1.5973562E-3,-3.2150866E-3,-8.814698E-4],"categories":[],"categories_nodes":[],"categories_segments":[],"categories_sizes":[],"default_left":[0,0,0,0,0,0,0,0,0,0,0,0,0,0,0],"id":61,"left_children":[1,3,5,7,9,11,13,-1,-1,-1,-1,-1,-1,-1,-1],"loss_changes":[4.462859E0,2.8179474E0,1.0928557E0,7.2234344E-1,1.6831813E0,7.302947E-1,7.748523E-1,0E0,0E0,0E0,0E0,0E0,0E0,0E0,0E0],"parents":[2147483647,0,0,1,1,2,2,3,3,4,4,5,5,6,6],"right_children":[2,4,6,8,10,12,14,-1,-1,-1,-1,-1,-1,-1,-1],"split_conditions":[1E0,1E0,7E-1,1.48E2,6E-1,1.57E2,1.45E2,2.5330088E-3,-9.4727344E-5,1.2988916E-3,-2.4837728E-3,1.5231329E-3,-1.5973562E-3,-3.2150866E-3,-8.814698E-4],"split_indices":[17,9,7,2,7,5,5,0,0,0,0,0,0,0,0],"split_type":[0,0,0,0,0,0,0,0,0,0,0,0,0,0,0],"sum_hessian":[2.27E2,1.35E2,9.2E1,8.9E1,4.6E1,2.8E1,6.4E1,7.7E1,1.2E1,2E1,2.6E1,1.4E1,1.4E1,4.1E1,2.3E1],"tree_param":{"num_deleted":"0","num_feature":"18","num_nodes":"15","size_leaf_vector":"1"}},{"base_weights":[-3.3593294E-4,1.214237E-1,-1.574025E-1,2.1600464E-1,-9.4418995E-2,-2.2797091E-1,1.1892492E-1,2.68148E-3,6.143754E-4,-3.062204E-3,3.1405635E-4,-2.7609733E-3,9.901262E-4,2.2754124E-3,-2.7415552E-3],"categories":[],"categories_nodes":[],"categories_segments":[],"categories_sizes":[],"default_left":[0,0,0,0,0,0,0,0,0,0,0,0,0,0,0],"id":62,"left_children":[1,3,5,7,9,11,13,-1,-1,-1,-1,-1,-1,-1,-1],"loss_changes":[4.3794684E0,2.6538787E0,1.9771104E0,7.088938E-1,1.0756106E0,1.2862606E0,9.5897555E-1,0E0,0E0,0E0,0E0,0E0,0E0,0E0,0E0],"parents":[2147483647,0,0,1,1,2,2,3,3,4,4,5,5,6,6],"right_children":[2,4,6,8,10,12,14,-1,-1,-1,-1,-1,-1,-1,-1],"split_conditions":[1E0,1E0,1E0,5.9E1,5.2E1,1E0,2E0,2.68148E-3,6.143754E-4,-3.062204E-3,3.1405635E-4,-2.7609733E-3,9.901262E-4,2.2754124E-3,-2.7415552E-3],"split_indices":[9,17,11,0,0,10,7,0,0,0,0,0,0,0,0],"split_type":[0,0,0,0,0,0,0,0,0,0,0,0,0,0,0],"sum_hessian":[2.27E2,1.28E2,9.9E1,8.9E1,3.9E1,7.9E1,2E1,6.6E1,2.3E1,1.4E1,2.5E1,6.9E1,1E1,1.6E1,4E0],"tree_param":{"num_deleted":"0","num_feature":"18","num_nodes":"15","size_leaf_vector":"1"}},{"base_weights":[-3.3999077E-4,1.1293939E-1,-1.659922E-1,2.138812E-1,-8.275639E-2,-3.052473E-3,-2.3613466E-1,2.4855074E-3,-1.05884734E-4,1.2853105E-3,-2.4402603E-3,1.5146785E-3,-1.5736928E-3,-3.1619328E-3,-8.619311E-4],"categories":[],"categories_nodes":[],"categories_segments":[],"categories_sizes":[],"default_left":[0,0,0,0,0,0,0,0,0,0,0,0,0,0,0],"id":63,"left_children":[1,3,5,7,9,11,13,-1,-1,-1,-1,-1,-1,-1,-1],"loss_changes":[4.2971625E0,2.7042284E0,1.0621755E0,7.0303535E-1,1.6328547E0,7.153438E-1,7.530136E-1,0E0,0E0,0E0,0E0,0E0,0E0,0E0,0E0],"parents":[2147483647,0,0,1,1,2,2,3,3,4,4,5,5,6,6],"right_children":[2,4,6,8,10,12,14,-1,-1,-1,-1,-1,-1,-1,-1],"split_conditions":[1E0,1E0,7E-1,1.48E2,6E-1,1.57E2,1.45E2,2.4855074E-3,-1.05884734E-4,1.2853105E-3,-2.4402603E-3,1.5146785E-3,-1.5736928E-3,-3.1619328E-3,-8.619311E-4],"split_indices":[17,9,7,2,7,5,5,0,0,0,0,0,0,0,0],"split_type":[0,0,0,0,0,0,0,0,0,0,0,0,0,0,0],"sum_hessian":[2.27E2,1.35E2,9.2E1,8.9E1,4.6E1,2.8E1,6.4E1,7.7E1,1.2E1,2E1,2.6E1,1.4E1,1.4E1,4.1E1,2.3E1],"tree_param":{"num_deleted":"0","num_feature":"18","num_nodes":"15","size_leaf_vector":"1"}},{"base_weights":[-3.4912702E-4,1.19118035E-1,-1.5445827E-1,2.117688E-1,-9.2324175E-2,-2.2412473E-1,1.1829291E-1,2.6321283E-3,5.933058E-4,-2.7183038E-3,5.2173046E-4,-2.7153092E-3,9.792607E-4,-4.507575E-4,3.8940145E-3],"categories":[],"categories_nodes":[],"categories_segments":[],"categories_sizes":[],"default_left":[0,0,0,0,0,0,0,0,0,0,0,0,0,0,0],"id":64,"left_children":[1,3,5,7,9,11,13,-1,-1,-1,-1,-1,-1,-1,-1],"loss_changes":[4.2161026E0,2.546698E0,1.9266737E0,6.901665E-1,1.0517082E0,1.2479663E0,9.47656E-1,0E0,0E0,0E0,0E0,0E0,0E0,0E0,0E0],"parents":[2147483647,0,0,1,1,2,2,3,3,4,4,5,5,6,6],"right_children":[2,4,6,8,10,12,14,-1,-1,-1,-1,-1,-1,-1,-1],"split_conditions":[1E0,1E0,1E0,5.9E1,1.45E2,1E0,2.64E2,2.6321283E-3,5.933058E-4,-2.7183038E-3,5.2173046E-4,-2.7153092E-3,9.792607E-4,-4.507575E-4,3.8940145E-3],"split_indices":[9,17,11,0,5,10,3,0,0,0,0,0,0,0,0],"split_type":[0,0,0,0,0,0,0,0,0,0,0,0,0,0,0],"sum_hessian":[2.27E2,1.28E2,9.9E1,8.9E1,3.9E1,7.9E1,2E1,6.6E1,2.3E1,1.7E1,2.2E1,6.9E1,1E1,1.3E1,7E0],"tree_param":{"num_deleted":"0","num_feature":"18","num_nodes":"15","size_leaf_vector":"1"}},{"base_weights":[-3.3363738E-4,1.107947E-1,-1.628403E-1,2.0968695E-1,-8.093078E-2,-2.007171E-3,-2.320914E-1,2.4389077E-3,-1.16657546E-4,1.2725492E-3,-2.3985554E-3,1.5132875E-3,-1.5520928E-3,-3.1065084E-3,-8.4941875E-4],"categories":[],"categories_nodes":[],"categories_segments":[],"categories_sizes":[],"default_left":[0,0,0,0,0,0,0,0,0,0,0,0,0,0,0],"id":65,"left_children":[1,3,5,7,9,11,13,-1,-1,-1,-1,-1,-1,-1,-1],"loss_changes":[4.1355157E0,2.595553E0,1.0353563E0,6.842451E-1,1.5855585E0,7.047379E-1,7.250116E-1,0E0,0E0,0E0,0E0,0E0,0E0,0E0,0E0],"parents":[2147483647,0,0,1,1,2,2,3,3,4,4,5,5,6,6],"right_children":[2,4,6,8,10,12,14,-1,-1,-1,-1,-1,-1,-1,-1],"split_conditions":[1E0,1E0,7E-1,1.48E2,6E-1,1.57E2,1.45E2,2.4389077E-3,-1.16657546E-4,1.2725492E-3,-2.3985554E-3,1.5132875E-3,-1.5520928E-3,-3.1065084E-3,-8.4941875E-4],"split_indices":[17,9,7,2,7,5,5,0,0,0,0,0,0,0,0],"split_type":[0,0,0,0,0,0,0,0,0,0,0,0,0,0,0],"sum_hessian":[2.27E2,1.35E2,9.2E1,8.9E1,4.6E1,2.8E1,6.4E1,7.7E1,1.2E1,2E1,2.6E1,1.4E1,1.4E1,4.1E1,2.3E1],"tree_param":{"num_deleted":"0","num_feature":"18","num_nodes":"15","size_leaf_vector":"1"}},{"base_weights":[-3.4257534E-4,9.07548E-2,-1.9501172E-1,1.857492E-1,-6.4332075E-2,-2.6561037E-1,-1.927801E-2,2.290765E-3,4.4417157E-4,-2.0376667E-3,7.2679884E-4,-8.075998E-4,-3.0242186E-3,1.3871704E-3,-2.2274377E-3],"categories":[],"categories_nodes":[],"categories_segments":[],"categories_sizes":[],"default_left":[0,0,0,0,0,0,0,0,0,0,0,0,0,0,0],"id":66,"left_children":[1,3,5,7,9,11,13,-1,-1,-1,-1,-1,-1,-1,-1],"loss_changes":[4.0610156E0,2.3102016E0,9.005587E-1,5.838082E-1,1.1610625E0,3.294165E-1,7.381232E-1,0E0,0E0,0E0,0E0,0E0,0E0,0E0,0E0],"parents":[2147483647,0,0,1,1,2,2,3,3,4,4,5,5,6,6],"right_children":[2,4,6,8,10,12,14,-1,-1,-1,-1,-1,-1,-1,-1],"split_conditions":[1E0,1E0,1.47E2,1E0,1E0,1.12E2,7E-1,2.290765E-3,4.4417157E-4,-2.0376667E-3,7.2679884E-4,-8.075998E-4,-3.0242186E-3,1.3871704E-3,-2.2274377E-3],"split_indices":[6,9,5,17,13,2,7,0,0,0,0,0,0,0,0],"split_type":[0,0,0,0,0,0,0,0,0,0,0,0,0,0,0],"sum_hessian":[2.27E2,1.55E2,7.2E1,9.6E1,5.9E1,5.1E1,2.1E1,7.3E1,2.3E1,2.9E1,3E1,9E0,4.2E1,1.2E1,9E0],"tree_param":{"num_deleted":"0","num_feature":"18","num_nodes":"15","size_leaf_vector":"1"}},{"base_weights":[-3.5340287E-4,1.0888315E-1,-1.6009338E-1,2.058519E-1,-7.911834E-2,-1.9675205E-3,-2.2817886E-1,2.5648756E-3,5.5916805E-4,-1.8146385E-3,2.345114E-3,1.503044E-3,-1.5410826E-3,-3.0563523E-3,-8.312276E-4],"categories":[],"categories_nodes":[],"categories_segments":[],"categories_sizes":[],"default_left":[0,0,0,0,0,0,0,0,0,0,0,0,0,0,0],"id":67,"left_children":[1,3,5,7,9,11,13,-1,-1,-1,-1,-1,-1,-1,-1],"loss_changes":[3.9959047E0,2.4956036E0,1.0007961E0,6.689434E-1,1.5511894E0,6.9499934E-1,7.049036E-1,0E0,0E0,0E0,0E0,0E0,0E0,0E0,0E0],"parents":[2147483647,0,0,1,1,2,2,3,3,4,4,5,5,6,6],"right_children":[2,4,6,8,10,12,14,-1,-1,-1,-1,-1,-1,-1,-1],"split_conditions":[1E0,1E0,7E-1,5.9E1,1E0,1.57E2,1.45E2,2.5648756E-3,5.5916805E-4,-1.8146385E-3,2.345114E-3,1.503044E-3,-1.5410826E-3,-3.0563523E-3,-8.312276E-4],"split_indices":[17,9,7,0,11,5,5,0,0,0,0,0,0,0,0],"split_type":[0,0,0,0,0,0,0,0,0,0,0,0,0,0,0],"sum_hessian":[2.27E2,1.35E2,9.2E1,8.9E1,4.6E1,2.8E1,6.4E1,6.6E1,2.3E1,3.5E1,1.1E1,1.4E1,1.4E1,4.1E1,2.3E1],"tree_param":{"num_deleted":"0","num_feature":"18","num_nodes":"15","size_leaf_vector":"1"}},{"base_weights":[-3.5104848E-4,8.926872E-2,-1.9186246E-1,1.8249816E-1,-6.294E-2,-2.611507E-1,-1.9369258E-2,2.2474725E-3,4.4625998E-4,-2.009374E-3,7.2636205E-4,-7.901655E-4,-2.974342E-3,1.3699888E-3,-2.207109E-3],"categories":[],"categories_nodes":[],"categories_segments":[],"categories_sizes":[],"default_left":[0,0,0,0,0,0,0,0,0,0,0,0,0,0,0],"id":68,"left_children":[1,3,5,7,9,11,13,-1,-1,-1,-1,-1,-1,-1,-1],"loss_changes":[3.9303389E0,2.2251782E0,8.6741924E-1,5.549929E-1,1.1371454E0,3.2013798E-1,7.228723E-1,0E0,0E0,0E0,0E0,0E0,0E0,0E0,0E0],"parents":[2147483647,0,0,1,1,2,2,3,3,4,4,5,5,6,6],"right_children":[2,4,6,8,10,12,14,-1,-1,-1,-1,-1,-1,-1,-1],"split_conditions":[1E0,1E0,1.47E2,1E0,1E0,1.12E2,7E-1,2.2474725E-3,4.4625998E-4,-2.009374E-3,7.2636205E-4,-7.901655E-4,-2.974342E-3,1.3699888E-3,-2.207109E-3],"split_indices":[6,9,5,17,13,2,7,0,0,0,0,0,0,0,0],"split_type":[0,0,0,0,0,0,0,0,0,0,0,0,0,0,0],"sum_hessian":[2.27E2,1.55E2,7.2E1,9.6E1,5.9E1,5.1E1,2.1E1,7.3E1,2.3E1,2.9E1,3E1,9E0,4.2E1,1.2E1,9E0],"tree_param":{"num_deleted":"0","num_feature":"18","num_nodes":"15","size_leaf_vector":"1"}},{"base_weights":[-3.6152857E-4,1.07024446E-1,-1.573952E-1,2.0209767E-1,-7.7307776E-2,-1.9353207E-3,-2.2433276E-1,2.3559497E-3,-1.4432245E-4,1.2732662E-3,-2.336046E-3,1.4927683E-3,-1.5301845E-3,-3.007033E-3,-8.133711E-4],"categories":[],"categories_nodes":[],"categories_segments":[],"categories_sizes":[],"default_left":[0,0,0,0,0,0,0,0,0,0,0,0,0,0,0],"id":69,"left_children":[1,3,5,7,9,11,13,-1,-1,-1,-1,-1,-1,-1,-1],"loss_changes":[3.8616579E0,2.3990316E0,9.673338E-1,6.5618587E-1,1.5329784E0,6.8536484E-1,6.853843E-1,0E0,0E0,0E0,0E0,0E0,0E0,0E0,0E0],"parents":[2147483647,0,0,1,1,2,2,3,3,4,4,5,5,6,6],"right_children":[2,4,6,8,10,12,14,-1,-1,-1,-1,-1,-1,-1,-1],"split_conditions":[1E0,1E0,7E-1,1.48E2,6E-1,1.57E2,1.45E2,2.3559497E-3,-1.4432245E-4,1.2732662E-3,-2.336046E-3,1.4927683E-3,-1.5301845E-3,-3.007033E-3,-8.133711E-4],"split_indices":[17,9,7,2,7,5,5,0,0,0,0,0,0,0,0],"split_type":[0,0,0,0,0,0,0,0,0,0,0,0,0,0,0],"sum_hessian":[2.27E2,1.35E2,9.2E1,8.9E1,4.6E1,2.8E1,6.4E1,7.7E1,1.2E1,2E1,2.6E1,1.4E1,1.4E1,4.1E1,2.3E1],"tree_param":{"num_deleted":"0","num_feature":"18","num_nodes":"15","size_leaf_vector":"1"}},{"base_weights":[-3.6979298E-4,8.7809786E-2,-1.8880327E-1,1.7928798E-1,-6.1543476E-2,-2.5672746E-1,-1.9673264E-2,2.2047637E-3,4.4820138E-4,-1.981181E-3,7.2610815E-4,-7.734216E-4,-2.9247452E-3,1.3481523E-3,-2.1854097E-3],"categories":[],"categories_nodes":[],"categories_segments":[],"categories_sizes":[],"default_left":[0,0,0,0,0,0,0,0,0,0,0,0,0,0,0],"id":70,"left_children":[1,3,5,7,9,11,13,-1,-1,-1,-1,-1,-1,-1,-1],"loss_changes":[3.8050234E0,2.1423945E0,8.335748E-1,5.27354E-1,1.1137102E0,3.108294E-1,7.053637E-1,0E0,0E0,0E0,0E0,0E0,0E0,0E0,0E0],"parents":[2147483647,0,0,1,1,2,2,3,3,4,4,5,5,6,6],"right_children":[2,4,6,8,10,12,14,-1,-1,-1,-1,-1,-1,-1,-1],"split_conditions":[1E0,1E0,1.47E2,1E0,1E0,1.12E2,7E-1,2.2047637E-3,4.4820138E-4,-1.981181E-3,7.2610815E-4,-7.734216E-4,-2.9247452E-3,1.3481523E-3,-2.1854097E-3],"split_indices":[6,9,5,17,13,2,7,0,0,0,0,0,0,0,0],"split_type":[0,0,0,0,0,0,0,0,0,0,0,0,0,0,0],"sum_hessian":[2.27E2,1.55E2,7.2E1,9.6E1,5.9E1,5.1E1,2.1E1,7.3E1,2.3E1,2.9E1,3E1,9E0,4.2E1,1.2E1,9E0],"tree_param":{"num_deleted":"0","num_feature":"18","num_nodes":"15","size_leaf_vector":"1"}},{"base_weights":[-3.7986157E-4,1.0518149E-1,-1.5474507E-1,1.9840422E-1,-7.556803E-2,-1.9099497E-3,-2.2055236E-1,2.4813123E-3,5.1316177E-4,-1.7643631E-3,2.3333419E-3,1.4824624E-3,-1.519388E-3,-2.9585396E-3,-7.9584814E-4],"categories":[],"categories_nodes":[],"categories_segments":[],"categories_sizes":[],"default_left":[0,0,0,0,0,0,0,0,0,0,0,0,0,0,0],"id":71,"left_children":[1,3,5,7,9,11,13,-1,-1,-1,-1,-1,-1,-1,-1],"loss_changes":[3.7315364E0,2.3065882E0,9.3494153E-1,6.455488E-1,1.5056152E0,6.7582947E-1,6.66435E-1,0E0,0E0,0E0,0E0,0E0,0E0,0E0,0E0],"parents":[2147483647,0,0,1,1,2,2,3,3,4,4,5,5,6,6],"right_children":[2,4,6,8,10,12,14,-1,-1,-1,-1,-1,-1,-1,-1],"split_conditions":[1E0,1E0,7E-1,5.9E1,1E0,1.57E2,1.45E2,2.4813123E-3,5.1316177E-4,-1.7643631E-3,2.3333419E-3,1.4824624E-3,-1.519388E-3,-2.9585396E-3,-7.9584814E-4],"split_indices":[17,9,7,0,11,5,5,0,0,0,0,0,0,0,0],"split_type":[0,0,0,0,0,0,0,0,0,0,0,0,0,0,0],"sum_hessian":[2.27E2,1.35E2,9.2E1,8.9E1,4.6E1,2.8E1,6.4E1,6.6E1,2.3E1,3.5E1,1.1E1,1.4E1,1.4E1,4.1E1,2.3E1],"tree_param":{"num_deleted":"0","num_feature":"18","num_nodes":"15","size_leaf_vector":"1"}},{"base_weights":[-3.770718E-4,8.637112E-2,-1.8575159E-1,1.7615075E-1,-6.021216E-2,-2.254416E-1,8.6839706E-2,2.1630572E-3,4.499995E-4,9.1372145E-4,-1.7881698E-3,-4.166845E-4,-2.5870204E-3,2.8530094E-3,-2.8217735E-3],"categories":[],"categories_nodes":[],"categories_segments":[],"categories_sizes":[],"default_left":[0,0,0,0,0,0,0,0,0,0,0,0,0,0,0],"id":72,"left_children":[1,3,5,7,9,11,13,-1,-1,-1,-1,-1,-1,-1,-1],"loss_changes":[3.6824894E0,2.0635967E0,8.093755E-1,5.0110316E-1,1.0950568E0,3.804121E-1,8.128613E-1,0E0,0E0,0E0,0E0,0E0,0E0,0E0,0E0],"parents":[2147483647,0,0,1,1,2,2,3,3,4,4,5,5,6,6],"right_children":[2,4,6,8,10,12,14,-1,-1,-1,-1,-1,-1,-1,-1],"split_conditions":[1E0,1E0,1.63E2,1E0,6E-1,1.12E2,7E-1,2.1630572E-3,4.499995E-4,9.1372145E-4,-1.7881698E-3,-4.166845E-4,-2.5870204E-3,2.8530094E-3,-2.8217735E-3],"split_indices":[6,9,5,17,7,2,7,0,0,0,0,0,0,0,0],"split_type":[0,0,0,0,0,0,0,0,0,0,0,0,0,0,0],"sum_hessian":[2.27E2,1.55E2,7.2E1,9.6E1,5.9E1,6.3E1,9E0,7.3E1,2.3E1,2.6E1,3.3E1,1E1,5.3E1,6E0,3E0],"tree_param":{"num_deleted":"0","num_feature":"18","num_nodes":"15","size_leaf_vector":"1"}},{"base_weights":[-3.787121E-4,8.551855E-2,-1.839348E-1,1.7441618E-1,-5.9624616E-2,-2.5025117E-1,-1.882628E-2,2.1417192E-3,4.456869E-4,-1.9464137E-3,7.296013E-4,-2.6191315E-3,1.7225444E-3,1.3303678E-3,-2.1436564E-3],"categories":[],"categories_nodes":[],"categories_segments":[],"categories_sizes":[],"default_left":[0,0,0,0,0,0,0,0,0,0,0,0,0,0,0],"id":73,"left_children":[1,3,5,7,9,11,13,-1,-1,-1,-1,-1,-1,-1,-1],"loss_changes":[3.6105978E0,2.0232496E0,7.94595E-1,4.911859E-1,1.0882708E0,3.0133224E-1,6.81813E-1,0E0,0E0,0E0,0E0,0E0,0E0,0E0,0E0],"parents":[2147483647,0,0,1,1,2,2,3,3,4,4,5,5,6,6],"right_children":[2,4,6,8,10,12,14,-1,-1,-1,-1,-1,-1,-1,-1],"split_conditions":[1E0,1E0,1.47E2,1E0,1E0,1E0,7E-1,2.1417192E-3,4.456869E-4,-1.9464137E-3,7.296013E-4,-2.6191315E-3,1.7225444E-3,1.3303678E-3,-2.1436564E-3],"split_indices":[6,9,5,17,13,12,7,0,0,0,0,0,0,0,0],"split_type":[0,0,0,0,0,0,0,0,0,0,0,0,0,0,0],"sum_hessian":[2.27E2,1.55E2,7.2E1,9.6E1,5.9E1,5.1E1,2.1E1,7.3E1,2.3E1,2.9E1,3E1,5E1,1E0,1.2E1,9E0],"tree_param":{"num_deleted":"0","num_feature":"18","num_nodes":"15","size_leaf_vector":"1"}},{"base_weights":[-3.7641378E-4,1.02607675E-1,-1.5097275E-1,1.9311738E-1,-7.2891906E-2,-1.9784437E-3,-2.1512449E-1,2.4213505E-3,4.8229808E-4,-1.7239928E-3,2.3170453E-3,-2.1316556E-3,1.0371404E-3,-2.8917163E-3,-7.6578435E-4],"categories":[],"categories_nodes":[],"categories_segments":[],"categories_sizes":[],"default_left":[0,0,0,0,0,0,0,0,0,0,0,0,0,0,0],"id":74,"left_children":[1,3,5,7,9,11,13,-1,-1,-1,-1,-1,-1,-1,-1],"loss_changes":[3.5515497E0,2.174357E0,8.884909E-1,6.2750673E-1,1.4644966E0,6.6941416E-1,6.4468694E-1,0E0,0E0,0E0,0E0,0E0,0E0,0E0,0E0],"parents":[2147483647,0,0,1,1,2,2,3,3,4,4,5,5,6,6],"right_children":[2,4,6,8,10,12,14,-1,-1,-1,-1,-1,-1,-1,-1],"split_conditions":[1E0,1E0,7E-1,5.9E1,1E0,1E0,1.45E2,2.4213505E-3,4.8229808E-4,-1.7239928E-3,2.3170453E-3,-2.1316556E-3,1.0371404E-3,-2.8917163E-3,-7.6578435E-4],"split_indices":[17,9,7,0,11,13,5,0,0,0,0,0,0,0,0],"split_type":[0,0,0,0,0,0,0,0,0,0,0,0,0,0,0],"sum_hessian":[2.27E2,1.35E2,9.2E1,8.9E1,4.6E1,2.8E1,6.4E1,6.6E1,2.3E1,3.5E1,1.1E1,9E0,1.9E1,4.1E1,2.3E1],"tree_param":{"num_deleted":"0","num_feature":"18","num_nodes":"15","size_leaf_vector":"1"}},{"base_weights":[-3.7816507E-4,8.4128805E-2,-1.8096323E-1,1.7142582E-1,-5.84035E-2,-2.1969624E-1,8.502435E-2,-3.249158E-3,1.7998057E-3,9.092407E-4,-1.752694E-3,-3.8685763E-4,-2.525003E-3,2.8011443E-3,-2.7763941E-3],"categories":[],"categories_nodes":[],"categories_segments":[],"categories_sizes":[],"default_left":[0,0,0,0,0,0,0,0,0,0,0,0,0,0,0],"id":75,"left_children":[1,3,5,7,9,11,13,-1,-1,-1,-1,-1,-1,-1,-1],"loss_changes":[3.494663E0,1.9510642E0,7.7076197E-1,4.7034883E-1,1.0630143E0,3.7025595E-1,7.852919E-1,0E0,0E0,0E0,0E0,0E0,0E0,0E0,0E0],"parents":[2147483647,0,0,1,1,2,2,3,3,4,4,5,5,6,6],"right_children":[2,4,6,8,10,12,14,-1,-1,-1,-1,-1,-1,-1,-1],"split_conditions":[1E0,1E0,1.63E2,8.8E1,6E-1,1.12E2,7E-1,-3.249158E-3,1.7998057E-3,9.092407E-4,-1.752694E-3,-3.8685763E-4,-2.525003E-3,2.8011443E-3,-2.7763941E-3],"split_indices":[6,9,5,5,7,2,7,0,0,0,0,0,0,0,0],"split_type":[0,0,0,0,0,0,0,0,0,0,0,0,0,0,0],"sum_hessian":[2.27E2,1.55E2,7.2E1,9.6E1,5.9E1,6.3E1,9E0,1E0,9.5E1,2.6E1,3.3E1,1E1,5.3E1,6E0,3E0],"tree_param":{"num_deleted":"0","num_feature":"18","num_nodes":"15","size_leaf_vector":"1"}},{"base_weights":[-3.971085E-4,1.0102101E-1,-1.487032E-1,1.8987265E-1,-7.126982E-2,-2.6241418E-3,-2.115892E-1,2.2224728E-3,-1.8980792E-4,1.2685907E-3,-2.2273043E-3,1.4652567E-3,-1.51599E-3,-2.8462813E-3,-7.4954843E-4],"categories":[],"categories_nodes":[],"categories_segments":[],"categories_sizes":[],"default_left":[0,0,0,0,0,0,0,0,0,0,0,0,0,0,0],"id":76,"left_children":[1,3,5,7,9,11,13,-1,-1,-1,-1,-1,-1,-1,-1],"loss_changes":[3.4443529E0,2.0954642E0,8.5377336E-1,6.1275816E-1,1.4386654E0,6.6658074E-1,6.273413E-1,0E0,0E0,0E0,0E0,0E0,0E0,0E0,0E0],"parents":[2147483647,0,0,1,1,2,2,3,3,4,4,5,5,6,6],"right_children":[2,4,6,8,10,12,14,-1,-1,-1,-1,-1,-1,-1,-1],"split_conditions":[1E0,1E0,7E-1,1.48E2,6E-1,1.57E2,1.45E2,2.2224728E-3,-1.8980792E-4,1.2685907E-3,-2.2273043E-3,1.4652567E-3,-1.51599E-3,-2.8462813E-3,-7.4954843E-4],"split_indices":[17,9,7,2,7,5,5,0,0,0,0,0,0,0,0],"split_type":[0,0,0,0,0,0,0,0,0,0,0,0,0,0,0],"sum_hessian":[2.27E2,1.35E2,9.2E1,8.9E1,4.6E1,2.8E1,6.4E1,7.7E1,1.2E1,2E1,2.6E1,1.4E1,1.4E1,4.1E1,2.3E1],"tree_param":{"num_deleted":"0","num_feature":"18","num_nodes":"15","size_leaf_vector":"1"}},{"base_weights":[-4.0442354E-4,8.2727864E-2,-1.7805144E-1,1.6836683E-1,-5.7100594E-2,-2.161508E-1,8.358959E-2,-3.2440245E-3,1.7687903E-3,-1.9026602E-3,7.3611137E-4,-3.7702278E-4,-2.4849863E-3,2.7634257E-3,-2.7462551E-3],"categories":[],"categories_nodes":[],"categories_segments":[],"categories_sizes":[],"default_left":[0,0,0,0,0,0,0,0,0,0,0,0,0,0,0],"id":77,"left_children":[1,3,5,7,9,11,13,-1,-1,-1,-1,-1,-1,-1,-1],"loss_changes":[3.3818803E0,1.8776771E0,7.457578E-1,4.6425152E-1,1.0583829E0,3.6006618E-1,7.66361E-1,0E0,0E0,0E0,0E0,0E0,0E0,0E0,0E0],"parents":[2147483647,0,0,1,1,2,2,3,3,4,4,5,5,6,6],"right_children":[2,4,6,8,10,12,14,-1,-1,-1,-1,-1,-1,-1,-1],"split_conditions":[1E0,1E0,1.63E2,8.8E1,1E0,1.12E2,7E-1,-3.2440245E-3,1.7687903E-3,-1.9026602E-3,7.3611137E-4,-3.7702278E-4,-2.4849863E-3,2.7634257E-3,-2.7462551E-3],"split_indices":[6,9,5,5,13,2,7,0,0,0,0,0,0,0,0],"split_type":[0,0,0,0,0,0,0,0,0,0,0,0,0,0,0],"sum_hessian":[2.27E2,1.55E2,7.2E1,9.6E1,5.9E1,6.3E1,9E0,1E0,9.5E1,2.9E1,3E1,1E1,5.3E1,6E0,3E0],"tree_param":{"num_deleted":"0","num_feature":"18","num_nodes":"15","size_leaf_vector":"1"}},{"base_weights":[-4.244389E-4,9.950322E-2,-1.4655064E-1,1.8667404E-1,-6.9536716E-2,-2.979262E-3,-2.0835094E-1,2.3464814E-3,4.496826E-4,-1.6747122E-3,2.3006152E-3,-2.1206045E-3,1.017103E-3,-2.8037804E-3,-7.362221E-4],"categories":[],"categories_nodes":[],"categories_segments":[],"categories_sizes":[],"default_left":[0,0,0,0,0,0,0,0,0,0,0,0,0,0,0],"id":78,"left_children":[1,3,5,7,9,11,13,-1,-1,-1,-1,-1,-1,-1,-1],"loss_changes":[3.3438497E0,2.0169885E0,8.245456E-1,6.012869E-1,1.4175559E0,6.5633875E-1,6.101258E-1,0E0,0E0,0E0,0E0,0E0,0E0,0E0,0E0],"parents":[2147483647,0,0,1,1,2,2,3,3,4,4,5,5,6,6],"right_children":[2,4,6,8,10,12,14,-1,-1,-1,-1,-1,-1,-1,-1],"split_conditions":[1E0,1E0,7E-1,5.9E1,1E0,1E0,1.45E2,2.3464814E-3,4.496826E-4,-1.6747122E-3,2.3006152E-3,-2.1206045E-3,1.017103E-3,-2.8037804E-3,-7.362221E-4],"split_indices":[17,9,7,0,11,13,5,0,0,0,0,0,0,0,0],"split_type":[0,0,0,0,0,0,0,0,0,0,0,0,0,0,0],"sum_hessian":[2.27E2,1.35E2,9.2E1,8.9E1,4.6E1,2.8E1,6.4E1,6.6E1,2.3E1,3.5E1,1.1E1,9E0,1.9E1,4.1E1,2.3E1],"tree_param":{"num_deleted":"0","num_feature":"18","num_nodes":"15","size_leaf_vector":"1"}},{"base_weights":[-4.2553997E-4,9.853336E-2,-1.4513506E-1,1.848384E-1,-6.882803E-2,-2.9875122E-3,-2.063219E-1,2.1662975E-3,-2.0128173E-4,1.266851E-3,-2.1834462E-3,1.4469671E-3,-1.5047257E-3,-2.7764102E-3,-7.291665E-4],"categories":[],"categories_nodes":[],"categories_segments":[],"categories_sizes":[],"default_left":[0,0,0,0,0,0,0,0,0,0,0,0,0,0,0],"id":79,"left_children":[1,3,5,7,9,11,13,-1,-1,-1,-1,-1,-1,-1,-1],"loss_changes":[3.279328E0,1.9771236E0,8.0825675E-1,5.9081554E-1,1.4015863E0,6.534282E-1,5.981877E-1,0E0,0E0,0E0,0E0,0E0,0E0,0E0,0E0],"parents":[2147483647,0,0,1,1,2,2,3,3,4,4,5,5,6,6],"right_children":[2,4,6,8,10,12,14,-1,-1,-1,-1,-1,-1,-1,-1],"split_conditions":[1E0,1E0,7E-1,1.48E2,6E-1,1.57E2,1.45E2,2.1662975E-3,-2.0128173E-4,1.266851E-3,-2.1834462E-3,1.4469671E-3,-1.5047257E-3,-2.7764102E-3,-7.291665E-4],"split_indices":[17,9,7,2,7,5,5,0,0,0,0,0,0,0,0],"split_type":[0,0,0,0,0,0,0,0,0,0,0,0,0,0,0],"sum_hessian":[2.27E2,1.35E2,9.2E1,8.9E1,4.6E1,2.8E1,6.4E1,7.7E1,1.2E1,2E1,2.6E1,1.4E1,1.4E1,4.1E1,2.3E1],"tree_param":{"num_deleted":"0","num_feature":"18","num_nodes":"15","size_leaf_vector":"1"}},{"base_weights":[-4.323055E-4,8.082521E-2,-1.7407258E-1,1.641444E-1,-5.522123E-2,-2.1127285E-1,8.1416376E-2,-3.2408838E-3,1.7260608E-3,-1.867079E-3,7.3805253E-4,-3.6097455E-4,-2.4304427E-3,2.7109117E-3,-2.7086858E-3],"categories":[],"categories_nodes":[],"categories_segments":[],"categories_sizes":[],"default_left":[0,0,0,0,0,0,0,0,0,0,0,0,0,0,0],"id":80,"left_children":[1,3,5,7,9,11,13,-1,-1,-1,-1,-1,-1,-1,-1],"loss_changes":[3.2310534E0,1.7773678E0,7.1101165E-1,4.5667267E-1,1.0316957E0,3.4742308E-1,7.4162585E-1,0E0,0E0,0E0,0E0,0E0,0E0,0E0,0E0],"parents":[2147483647,0,0,1,1,2,2,3,3,4,4,5,5,6,6],"right_children":[2,4,6,8,10,12,14,-1,-1,-1,-1,-1,-1,-1,-1],"split_conditions":[1E0,1E0,1.63E2,8.8E1,1E0,1.12E2,7E-1,-3.2408838E-3,1.7260608E-3,-1.867079E-3,7.3805253E-4,-3.6097455E-4,-2.4304427E-3,2.7109117E-3,-2.7086858E-3],"split_indices":[6,9,5,5,13,2,7,0,0,0,0,0,0,0,0],"split_type":[0,0,0,0,0,0,0,0,0,0,0,0,0,0,0],"sum_hessian":[2.27E2,1.55E2,7.2E1,9.6E1,5.9E1,6.3E1,9E0,1E0,9.5E1,2.9E1,3E1,1E1,5.3E1,6E0,3E0],"tree_param":{"num_deleted":"0","num_feature":"18","num_nodes":"15","size_leaf_vector":"1"}},{"base_weights":[-4.5180105E-4,9.705234E-2,-1.4303364E-1,1.8172152E-1,-6.714507E-2,-1.8672283E-1,4.9378093E-2,2.2886458E-3,4.2542012E-4,-1.6377841E-3,2.2835038E-3,2.1165896E-3,-2.1179484E-3,-1.0649526E-3,3.0953554E-3],"categories":[],"categories_nodes":[],"categories_segments":[],"categories_sizes":[],"default_left":[0,0,0,0,0,0,0,0,0,0,0,0,0,0,0],"id":81,"left_children":[1,3,5,7,9,11,13,-1,-1,-1,-1,-1,-1,-1,-1],"loss_changes":[3.1836107E0,1.9029361E0,7.9100704E-1,5.807853E-1,1.3794703E0,8.039346E-1,7.628931E-1,0E0,0E0,0E0,0E0,0E0,0E0,0E0,0E0],"parents":[2147483647,0,0,1,1,2,2,3,3,4,4,5,5,6,6],"right_children":[2,4,6,8,10,12,14,-1,-1,-1,-1,-1,-1,-1,-1],"split_conditions":[1E0,1E0,1E0,5.9E1,1E0,1.1E2,2E0,2.2886458E-3,4.2542012E-4,-1.6377841E-3,2.2835038E-3,2.1165896E-3,-2.1179484E-3,-1.0649526E-3,3.0953554E-3],"split_indices":[17,9,11,0,11,2,8,0,0,0,0,0,0,0,0],"split_type":[0,0,0,0,0,0,0,0,0,0,0,0,0,0,0],"sum_hessian":[2.27E2,1.35E2,9.2E1,8.9E1,4.6E1,7.5E1,1.7E1,6.6E1,2.3E1,3.5E1,1.1E1,4E0,7.1E1,1.1E1,6E0],"tree_param":{"num_deleted":"0","num_feature":"18","num_nodes":"15","size_leaf_vector":"1"}},{"base_weights":[-4.2364394E-4,7.949748E-2,-1.7120817E-1,1.6131261E-1,-5.409529E-2,-2.0785365E-1,8.044358E-2,-3.2268064E-3,1.6971546E-3,-1.8402531E-3,7.338846E-4,-3.5364207E-4,-2.3914124E-3,2.6770148E-3,-2.6736865E-3],"categories":[],"categories_nodes":[],"categories_segments":[],"categories_sizes":[],"default_left":[0,0,0,0,0,0,0,0,0,0,0,0,0,0,0],"id":82,"left_children":[1,3,5,7,9,11,13,-1,-1,-1,-1,-1,-1,-1,-1],"loss_changes":[3.1256487E0,1.7137926E0,6.89919E-1,4.4925547E-1,1.0073433E0,3.3693695E-1,7.228809E-1,0E0,0E0,0E0,0E0,0E0,0E0,0E0,0E0],"parents":[2147483647,0,0,1,1,2,2,3,3,4,4,5,5,6,6],"right_children":[2,4,6,8,10,12,14,-1,-1,-1,-1,-1,-1,-1,-1],"split_conditions":[1E0,1E0,1.63E2,8.8E1,1E0,1.12E2,7E-1,-3.2268064E-3,1.6971546E-3,-1.8402531E-3,7.338846E-4,-3.5364207E-4,-2.3914124E-3,2.6770148E-3,-2.6736865E-3],"split_indices":[6,9,5,5,13,2,7,0,0,0,0,0,0,0,0],"split_type":[0,0,0,0,0,0,0,0,0,0,0,0,0,0,0],"sum_hessian":[2.27E2,1.55E2,7.2E1,9.6E1,5.9E1,6.3E1,9E0,1E0,9.5E1,2.9E1,3E1,1E1,5.3E1,6E0,3E0],"tree_param":{"num_deleted":"0","num_feature":"18","num_nodes":"15","size_leaf_vector":"1"}},{"base_weights":[-4.4300858E-4,9.56112E-2,-1.409046E-1,1.7866556E-1,-6.5463364E-2,-1.8397097E-1,4.8759185E-2,2.2515466E-3,4.1439096E-4,1.2720157E-3,-2.128893E-3,2.0899326E-3,-2.0870501E-3,-1.054827E-3,3.0620825E-3],"categories":[],"categories_nodes":[],"categories_segments":[],"categories_sizes":[],"default_left":[0,0,0,0,0,0,0,0,0,0,0,0,0,0,0],"id":83,"left_children":[1,3,5,7,9,11,13,-1,-1,-1,-1,-1,-1,-1,-1],"loss_changes":[3.0896316E0,1.8310969E0,7.686064E-1,5.648279E-1,1.3620589E0,7.823067E-1,7.4706936E-1,0E0,0E0,0E0,0E0,0E0,0E0,0E0,0E0],"parents":[2147483647,0,0,1,1,2,2,3,3,4,4,5,5,6,6],"right_children":[2,4,6,8,10,12,14,-1,-1,-1,-1,-1,-1,-1,-1],"split_conditions":[1E0,1E0,1E0,5.9E1,6E-1,1.1E2,2E0,2.2515466E-3,4.1439096E-4,1.2720157E-3,-2.128893E-3,2.0899326E-3,-2.0870501E-3,-1.054827E-3,3.0620825E-3],"split_indices":[17,9,11,0,7,2,8,0,0,0,0,0,0,0,0],"split_type":[0,0,0,0,0,0,0,0,0,0,0,0,0,0,0],"sum_hessian":[2.27E2,1.35E2,9.2E1,8.9E1,4.6E1,7.5E1,1.7E1,6.6E1,2.3E1,2E1,2.6E1,4E0,7.1E1,1.1E1,6E0],"tree_param":{"num_deleted":"0","num_feature":"18","num_nodes":"15","size_leaf_vector":"1"}},{"base_weights":[-4.2182815E-4,9.466838E-2,-1.3947394E-1,1.7690852E-1,-6.4826965E-2,-2.0902362E-3,-1.9862247E-1,2.0787173E-3,-2.2479087E-4,-1.6017673E-3,2.2662457E-3,1.433786E-3,-1.4741971E-3,-2.6812314E-3,-6.8720296E-4],"categories":[],"categories_nodes":[],"categories_segments":[],"categories_sizes":[],"default_left":[0,0,0,0,0,0,0,0,0,0,0,0,0,0,0],"id":84,"left_children":[1,3,5,7,9,11,13,-1,-1,-1,-1,-1,-1,-1,-1],"loss_changes":[3.0279326E0,1.7953695E0,7.553067E-1,5.603039E-1,1.3424221E0,6.342232E-1,5.6841326E-1,0E0,0E0,0E0,0E0,0E0,0E0,0E0,0E0],"parents":[2147483647,0,0,1,1,2,2,3,3,4,4,5,5,6,6],"right_children":[2,4,6,8,10,12,14,-1,-1,-1,-1,-1,-1,-1,-1],"split_conditions":[1E0,1E0,7E-1,1.48E2,1E0,1.57E2,1.45E2,2.0787173E-3,-2.2479087E-4,-1.6017673E-3,2.2662457E-3,1.433786E-3,-1.4741971E-3,-2.6812314E-3,-6.8720296E-4],"split_indices":[17,9,7,2,11,5,5,0,0,0,0,0,0,0,0],"split_type":[0,0,0,0,0,0,0,0,0,0,0,0,0,0,0],"sum_hessian":[2.27E2,1.35E2,9.2E1,8.9E1,4.6E1,2.8E1,6.4E1,7.7E1,1.2E1,3.5E1,1.1E1,1.4E1,1.4E1,4.1E1,2.3E1],"tree_param":{"num_deleted":"0","num_feature":"18","num_nodes":"15","size_leaf_vector":"1"}},{"base_weights":[-4.215157E-4,-1.0467734E-1,1.2489002E-1,-1.0673457E-2,-2.1663508E-1,2.5832257E-1,5.346305E-2,1.0556604E-3,-1.6530367E-3,-1.031092E-3,-2.6638783E-3,3.1170445E-3,-7.36022E-5,1.725778E-3,-1.2711847E-3],"categories":[],"categories_nodes":[],"categories_segments":[],"categories_sizes":[],"default_left":[0,0,0,0,0,0,0,0,0,0,0,0,0,0,0],"id":85,"left_children":[1,3,5,7,9,11,13,-1,-1,-1,-1,-1,-1,-1,-1],"loss_changes":[2.9917698E0,1.3132454E0,9.7738016E-1,1.2576662E0,2.9448175E-1,5.1286983E-1,1.5061224E0,0E0,0E0,0E0,0E0,0E0,0E0,0E0,0E0],"parents":[2147483647,0,0,1,1,2,2,3,3,4,4,5,5,6,6],"right_children":[2,4,6,8,10,12,14,-1,-1,-1,-1,-1,-1,-1,-1],"split_conditions":[2E0,1E0,1E0,1E0,2.23E2,3.19E2,1E0,1.0556604E-3,-1.6530367E-3,-1.031092E-3,-2.6638783E-3,3.1170445E-3,-7.36022E-5,1.725778E-3,-1.2711847E-3],"split_indices":[8,6,1,9,3,3,9,0,0,0,0,0,0,0,0],"split_type":[0,0,0,0,0,0,0,0,0,0,0,0,0,0,0],"sum_hessian":[2.27E2,1.24E2,1.03E2,6.8E1,5.6E1,3.5E1,6.8E1,3.9E1,2.9E1,1.8E1,3.8E1,2.9E1,6E0,4.1E1,2.7E1],"tree_param":{"num_deleted":"0","num_feature":"18","num_nodes":"15","size_leaf_vector":"1"}},{"base_weights":[-4.2078272E-4,-1.03664905E-1,1.2367476E-1,-1.05753755E-2,-2.1453355E-1,2.5582388E-1,5.2934997E-2,1.0453678E-3,-1.6370573E-3,-1.0213237E-3,-2.6379223E-3,3.0869131E-3,-7.297124E-5,1.7089308E-3,-1.2589268E-3],"categories":[],"categories_nodes":[],"categories_segments":[],"categories_sizes":[],"default_left":[0,0,0,0,0,0,0,0,0,0,0,0,0,0,0],"id":86,"left_children":[1,3,5,7,9,11,13,-1,-1,-1,-1,-1,-1,-1,-1],"loss_changes":[2.9339879E0,1.28782E0,9.586706E-1,1.2333877E0,2.8865218E-1,5.0303173E-1,1.477012E0,0E0,0E0,0E0,0E0,0E0,0E0,0E0,0E0],"parents":[2147483647,0,0,1,1,2,2,3,3,4,4,5,5,6,6],"right_children":[2,4,6,8,10,12,14,-1,-1,-1,-1,-1,-1,-1,-1],"split_conditions":[2E0,1E0,1E0,1E0,2.23E2,3.19E2,1E0,1.0453678E-3,-1.6370573E-3,-1.0213237E-3,-2.6379223E-3,3.0869131E-3,-7.297124E-5,1.7089308E-3,-1.2589268E-3],"split_indices":[8,6,1,9,3,3,9,0,0,0,0,0,0,0,0],"split_type":[0,0,0,0,0,0,0,0,0,0,0,0,0,0,0],"sum_hessian":[2.27E2,1.24E2,1.03E2,6.8E1,5.6E1,3.5E1,6.8E1,3.9E1,2.9E1,1.8E1,3.8E1,2.9E1,6E0,4.1E1,2.7E1],"tree_param":{"num_deleted":"0","num_feature":"18","num_nodes":"15","size_leaf_vector":"1"}},{"base_weights":[-4.2002264E-4,9.244134E-2,-1.3621277E-1,1.7253317E-1,-6.289284E-2,-1.7856453E-1,5.0173152E-2,2.1813794E-3,3.8030962E-4,-1.5680402E-3,2.2408178E-3,2.0581244E-3,-2.027773E-3,-1.0167181E-3,3.033112E-3],"categories":[],"categories_nodes":[],"categories_segments":[],"categories_sizes":[],"default_left":[0,0,0,0,0,0,0,0,0,0,0,0,0,0,0],"id":87,"left_children":[1,3,5,7,9,11,13,-1,-1,-1,-1,-1,-1,-1,-1],"loss_changes":[2.8876488E0,1.7028271E0,7.4307966E-1,5.4375887E-1,1.3017927E0,7.490537E-1,7.2271746E-1,0E0,0E0,0E0,0E0,0E0,0E0,0E0,0E0],"parents":[2147483647,0,0,1,1,2,2,3,3,4,4,5,5,6,6],"right_children":[2,4,6,8,10,12,14,-1,-1,-1,-1,-1,-1,-1,-1],"split_conditions":[1E0,1E0,1E0,5.9E1,1E0,1.1E2,2E0,2.1813794E-3,3.8030962E-4,-1.5680402E-3,2.2408178E-3,2.0581244E-3,-2.027773E-3,-1.0167181E-3,3.033112E-3],"split_indices":[17,9,11,0,11,2,8,0,0,0,0,0,0,0,0],"split_type":[0,0,0,0,0,0,0,0,0,0,0,0,0,0,0],"sum_hessian":[2.27E2,1.35E2,9.2E1,8.9E1,4.6E1,7.5E1,1.7E1,6.6E1,2.3E1,3.5E1,1.1E1,4E0,7.1E1,1.1E1,6E0],"tree_param":{"num_deleted":"0","num_feature":"18","num_nodes":"15","size_leaf_vector":"1"}},{"base_weights":[-3.9265488E-4,-1.0191969E-1,1.216388E-1,-1.0170465E-2,-2.1119647E-1,2.5227758E-1,5.171656E-2,1.0305826E-3,-1.6080308E-3,-1.0043177E-3,-2.5974344E-3,3.0455233E-3,-7.7968325E-5,1.6791933E-3,-1.2443463E-3],"categories":[],"categories_nodes":[],"categories_segments":[],"categories_sizes":[],"default_left":[0,0,0,0,0,0,0,0,0,0,0,0,0,0,0],"id":88,"left_children":[1,3,5,7,9,11,13,-1,-1,-1,-1,-1,-1,-1,-1],"loss_changes":[2.8372014E0,1.2511097E0,9.3694687E-1,1.1934319E0,2.804191E-1,4.918065E-1,1.4332737E0,0E0,0E0,0E0,0E0,0E0,0E0,0E0,0E0],"parents":[2147483647,0,0,1,1,2,2,3,3,4,4,5,5,6,6],"right_children":[2,4,6,8,10,12,14,-1,-1,-1,-1,-1,-1,-1,-1],"split_conditions":[2E0,1E0,1E0,1E0,2.23E2,3.19E2,1E0,1.0305826E-3,-1.6080308E-3,-1.0043177E-3,-2.5974344E-3,3.0455233E-3,-7.7968325E-5,1.6791933E-3,-1.2443463E-3],"split_indices":[8,6,1,9,3,3,9,0,0,0,0,0,0,0,0],"split_type":[0,0,0,0,0,0,0,0,0,0,0,0,0,0,0],"sum_hessian":[2.27E2,1.24E2,1.03E2,6.8E1,5.6E1,3.5E1,6.8E1,3.9E1,2.9E1,1.8E1,3.8E1,2.9E1,6E0,4.1E1,2.7E1],"tree_param":{"num_deleted":"0","num_feature":"18","num_nodes":"15","size_leaf_vector":"1"}},{"base_weights":[-3.921262E-4,9.090399E-2,-1.338962E-1,1.695493E-1,-6.1627537E-2,-1.7575698E-1,5.0287925E-2,1.997266E-3,-2.45568E-4,1.2459744E-3,-2.0418668E-3,2.0399203E-3,-1.9968736E-3,